3433 100
LSG -0.043776978 0.1926962 -0.09533395 -0.21626006 0.009212468 -0.057390388 -0.18450685 0.2442967 0.023581557 -0.08766552 0.09414975 0.30452478 0.045749 -0.117156774 0.06718005 -0.0212091 -0.04199254 -0.19050425 -0.22523528 -0.05692716 -0.22140697 0.09804296 0.09742896 -0.033943098 0.1772303 -0.14098825 -0.16302022 -0.19751881 0.07603 -0.14543664 -0.06925177 -0.1863721 0.12723361 0.19492024 0.09931142 0.0782984 0.053715296 -0.27789178 -0.16449347 -0.124172434 0.069342 0.16880484 0.22966744 0.098373845 -0.014353454 -0.1377428 0.15507482 0.45762095 0.10314874 -0.11265234 0.00091328553 0.23022807 -0.0312658 0.048201066 -0.23446284 -0.04101238 -0.7080076 0.028728824 -0.26905823 -0.0035896664 0.2621262 0.2061689 0.51289755 0.21357125 0.064940244 0.05211657 0.32847133 0.26420766 0.120427 -0.07653445 0.10886127 -0.091335975 0.09975642 -0.07113188 -0.24305318 -0.07796846 0.183032 0.05323355 0.31011045 -0.1471716 0.29936016 0.45832318 -0.10971548 0.13940918 -0.0014181674 -0.11020665 0.11600928 -0.33381826 0.14491466 -0.09035183 -0.0008163629 -0.50619197 0.15274708 0.5875735 0.027658781 -0.2824169 -0.0666616 -0.15714407 0.116717264 -0.18053289
ILA -0.041543774 0.1837777 -0.092213444 -0.21226372 0.0073571675 -0.052055288 -0.17858063 0.23402889 0.01975318 -0.08742382 0.09561688 0.29422984 0.044474386 -0.11967803 0.06508787 -0.01327307 -0.038894143 -0.19039604 -0.2125414 -0.0559404 -0.21378256 0.09918374 0.09721476 -0.030830173 0.17456707 -0.13687402 -0.15145455 -0.18829003 0.07398196 -0.14483285 -0.07364217 -0.1791592 0.124420576 0.1873779 0.0952535 0.085938156 0.05086301 -0.27521202 -0.16358091 -0.1222862 0.06300997 0.15767798 0.22025439 0.09627144 -0.008161777 -0.13105083 0.14551425 0.45163125 0.09800671 -0.10988757 0.00094737404 0.21561886 -0.029053811 0.04658263 -0.23050629 -0.036241677 -0.6969554 0.023002304 -0.258477 0.0018927072 0.2563303 0.20797515 0.50663525 0.20482914 0.06451499 0.054530617 0.3188075 0.25483406 0.11558833 -0.06760042 0.110246815 -0.08236527 0.104339235 -0.072571404 -0.2352989 -0.0788912 0.18378742 0.054829944 0.30710548 -0.13802037 0.29741353 0.45216238 -0.106988795 0.13061652 -0.0090383 -0.106767505 0.11260019 -0.32237527 0.13502507 -0.0818938 -0.00048293863 -0.4914716 0.15029019 0.572922 0.020403622 -0.27029657 -0.061623868 -0.1636 0.110286966 -0.17640191
LLL -0.040072173 0.17202859 -0.08370637 -0.19639486 0.010384796 -0.04687275 -0.17266 0.22585191 0.024311949 -0.07972248 0.09094261 0.28031227 0.033907723 -0.114586644 0.05831951 -0.018350944 -0.04412301 -0.17693195 -0.2058542 -0.056240905 -0.19748516 0.087063484 0.09035395 -0.023820944 0.16229394 -0.12801354 -0.14728704 -0.18641494 0.06811843 -0.14067097 -0.06441202 -0.16904266 0.12230084 0.17832401 0.09455322 0.07982116 0.05183626 -0.26271847 -0.15114552 -0.11212276 0.06576015 0.14810446 0.21627577 0.09796495 -0.0072540445 -0.12967019 0.14121935 0.4224497 0.09736591 -0.09745803 0.0020745695 0.20621555 -0.034846693 0.036340106 -0.2162503 -0.03248702 -0.65650564 0.023452863 -0.24578789 -0.0015649765 0.2506996 0.18928388 0.47792253 0.1964617 0.056990754 0.052822266 0.3036417 0.24106358 0.109342195 -0.06232666 0.1031215 -0.075740166 0.09812944 -0.064976916 -0.22315255 -0.07071325 0.1680268 0.05278395 0.29308444 -0.12838973 0.27611062 0.421013 -0.094385155 0.12729242 0.0031384574 -0.10274126 0.10342306 -0.3064357 0.13137211 -0.08303222 0.004118114 -0.46679798 0.1344583 0.5408392 0.025237806 -0.2627218 -0.05880145 -0.15176828 0.107614115 -0.17068645
LEA -0.042793676 0.1712323 -0.08684305 -0.20053962 0.015359729 -0.046377026 -0.16490632 0.21779768 0.022839269 -0.08151954 0.08378859 0.27776802 0.035312504 -0.10890624 0.058298063 -0.0144639015 -0.04324787 -0.18044075 -0.19926798 -0.05769594 -0.19545084 0.08623726 0.08898279 -0.026635136 0.16720916 -0.13596912 -0.14502127 -0.18119086 0.06442118 -0.13773789 -0.06637978 -0.17536692 0.11596 0.17661393 0.09390904 0.082631834 0.05085986 -0.25239703 -0.14689937 -0.119612016 0.06146977 0.15513478 0.21671772 0.096433446 -0.008424149 -0.12163516 0.14241952 0.42844194 0.092502646 -0.09958094 -0.0047528786 0.20355506 -0.025097 0.03804278 -0.21941343 -0.034698147 -0.6476905 0.02899782 -0.25447845 0.0014250181 0.24778481 0.19206302 0.469505 0.19440176 0.06244339 0.051062625 0.3047302 0.24488193 0.103405625 -0.069115825 0.09849307 -0.0834913 0.09697888 -0.0655122 -0.22712304 -0.07207941 0.16714695 0.057112407 0.2884154 -0.1262292 0.27886268 0.42549494 -0.09685584 0.12968016 -0.00367894 -0.106275015 0.105286315 -0.31332716 0.13703036 -0.08365444 0.0049941908 -0.46351516 0.1362258 0.5389173 0.02121359 -0.2523481 -0.05429955 -0.146675 0.10061931 -0.16409184
EEL -0.0458032 0.17340103 -0.08965642 -0.20878936 0.0076914984 -0.048681173 -0.1773136 0.22955243 0.025827108 -0.085205816 0.08150434 0.28138268 0.04396268 -0.115728326 0.06474595 -0.014263413 -0.04511057 -0.18086603 -0.20867492 -0.05650747 -0.20307149 0.09305791 0.09342167 -0.035659812 0.16303529 -0.13952574 -0.15474708 -0.18490441 0.06818642 -0.14397608 -0.07326008 -0.17323321 0.12042055 0.17267771 0.09504703 0.08286534 0.04727491 -0.25996727 -0.1540029 -0.12245345 0.06823068 0.15673728 0.21940805 0.09904426 -0.012980947 -0.13225171 0.14082766 0.43042183 0.098667994 -0.10074114 0.0027166381 0.20964962 -0.028418424 0.039518785 -0.2252275 -0.030982489 -0.66825444 0.025125433 -0.25740504 -0.0056177867 0.24804173 0.20237367 0.4857262 0.20233227 0.06437195 0.050047528 0.30231446 0.2532091 0.10466675 -0.06878245 0.10122404 -0.08465287 0.101546064 -0.06621032 -0.22672783 -0.07887626 0.17015757 0.05578467 0.29377905 -0.12849516 0.28611305 0.43337613 -0.098645054 0.13259758 -0.0061224326 -0.10899502 0.10293087 -0.3147618 0.13223001 -0.078869134 0.0034664003 -0.4659797 0.14599296 0.5476695 0.0207064 -0.26547995 -0.054868985 -0.14843455 0.10175099 -0.16736704
LAG -0.042144157 0.16831857 -0.09014361 -0.1942163 0.010482054 -0.048842184 -0.16096035 0.20958807 0.016707158 -0.0730882 0.084952936 0.25691593 0.03582629 -0.107527934 0.054468643 -0.013892893 -0.037349205 -0.16557844 -0.19770068 -0.055718157 -0.18950133 0.09296496 0.08346454 -0.026601804 0.15180734 -0.12686324 -0.14415966 -0.17188734 0.06791994 -0.1314478 -0.05914818 -0.16105528 0.10956635 0.16182548 0.09418721 0.06984923 0.045651376 -0.24692166 -0.13836282 -0.109619364 0.058762778 0.14206421 0.19915815 0.086734004 -0.013300614 -0.118344076 0.13745604 0.40129095 0.0939378 -0.09351937 0.0014725925 0.20330405 -0.023730405 0.03293698 -0.21084224 -0.03302303 -0.61556476 0.02213065 -0.23634386 0.005063487 0.23216836 0.18063289 0.44971615 0.18452746 0.06352662 0.048861794 0.28787777 0.2339685 0.103611 -0.06650286 0.09915339 -0.075367056 0.09060012 -0.06280611 -0.21439916 -0.06655465 0.16363195 0.047463745 0.27736902 -0.12338841 0.26290247 0.40232894 -0.09436099 0.121209174 -0.0071491576 -0.0924805 0.1017725 -0.29004472 0.12369055 -0.07565773 0.004015958 -0.4438287 0.12742381 0.5130397 0.018840428 -0.24951069 -0.050159305 -0.14236826 0.10209939 -0.1561112
AVE -0.038842335 0.16285779 -0.08634165 -0.18895389 0.014189217 -0.0473061 -0.16178949 0.21210824 0.02221955 -0.07436208 0.08098741 0.26755762 0.03650541 -0.10783261 0.0654755 -0.014707095 -0.037970882 -0.17101233 -0.19454639 -0.050973974 -0.18896812 0.081742406 0.08330332 -0.024934448 0.1614388 -0.13112615 -0.13629802 -0.17336912 0.06904446 -0.13007228 -0.05949726 -0.16720971 0.11089296 0.16309212 0.09168169 0.07132787 0.05190853 -0.24581987 -0.14051178 -0.106337 0.06126818 0.14417091 0.20228016 0.09422532 -0.009197554 -0.1230536 0.1306902 0.4067596 0.09537327 -0.094605625 -0.0026182935 0.19649078 -0.03088553 0.035007842 -0.20277937 -0.036607504 -0.622186 0.024844619 -0.23377337 0.0013393267 0.2305151 0.17802407 0.44621658 0.19490178 0.061304472 0.049985103 0.2864707 0.22826329 0.10374606 -0.06578933 0.09687504 -0.0800683 0.09386516 -0.06760689 -0.21710621 -0.07115739 0.15389179 0.054577526 0.27664277 -0.12693195 0.2640794 0.4107673 -0.09319289 0.118957765 -0.008362566 -0.10243994 0.09347206 -0.29690012 0.11995532 -0.0800688 0.0063802083 -0.44114694 0.13034554 0.5057328 0.024421971 -0.24967071 -0.0609507 -0.1451938 0.09662839 -0.16097188
DIL -0.047165874 0.1706282 -0.089632474 -0.20374088 0.012614897 -0.04701691 -0.17115536 0.21767798 0.02432819 -0.084937766 0.087902166 0.27383476 0.037496377 -0.11593871 0.06269541 -0.010700068 -0.041000623 -0.18226075 -0.20760867 -0.055390112 -0.20605275 0.087679826 0.09180789 -0.032104515 0.16576175 -0.1321027 -0.1481856 -0.18501662 0.06377598 -0.13469356 -0.071142145 -0.17605384 0.117531374 0.17341952 0.0956534 0.077970885 0.05357819 -0.25513098 -0.15270701 -0.111393884 0.061872326 0.15002741 0.21329856 0.09303773 -0.011401284 -0.12380327 0.14261131 0.42939636 0.09861865 -0.099053755 -0.0018121452 0.20934999 -0.031168684 0.04174097 -0.222628 -0.04028825 -0.65991277 0.029157113 -0.24956429 1.553142e-05 0.24113402 0.19762106 0.4736235 0.19880414 0.059360214 0.049861643 0.30431184 0.24753712 0.10758589 -0.07022422 0.1055048 -0.07985893 0.09476497 -0.066563316 -0.226637 -0.07325522 0.17384167 0.05492563 0.28803185 -0.1334484 0.27838123 0.43222544 -0.0993158 0.128646 -0.0035638858 -0.09898177 0.103952065 -0.3058772 0.13468124 -0.08845965 0.0067429044 -0.46440265 0.13199751 0.53545326 0.021846145 -0.2629742 -0.05830171 -0.14855067 0.108742185 -0.1679686
EAG -0.041456576 0.17450944 -0.096969865 -0.20162709 0.00832171 -0.048499607 -0.17791508 0.2210492 0.017008534 -0.08495799 0.083418615 0.27889425 0.03719343 -0.113889135 0.060709648 -0.010094747 -0.047985274 -0.17954418 -0.2097268 -0.054686174 -0.20113395 0.097786576 0.09033026 -0.03459065 0.16596267 -0.13297631 -0.14858972 -0.18118916 0.07372768 -0.13938719 -0.06850777 -0.17093053 0.11103806 0.16958329 0.09188327 0.08198562 0.049874548 -0.26062882 -0.14856978 -0.11968086 0.06353048 0.15606086 0.21019103 0.099831976 -0.0042860517 -0.13159662 0.14754349 0.42885467 0.09469863 -0.10278902 0.0016659056 0.21079004 -0.025855528 0.037976086 -0.2255699 -0.03709247 -0.6601186 0.024944844 -0.24894781 0.0026331 0.24513954 0.19041835 0.4780434 0.20342158 0.05760152 0.053505998 0.30468586 0.24489518 0.10865522 -0.06713917 0.096873246 -0.08611247 0.098985925 -0.06863002 -0.22640353 -0.0687899 0.1638413 0.049273673 0.2870513 -0.1320664 0.27893642 0.428435 -0.09870847 0.12919734 -0.008066765 -0.106831886 0.09932842 -0.30515862 0.1329097 -0.08686924 0.0021153109 -0.46368024 0.13467346 0.5419393 0.023106465 -0.2563759 -0.056913625 -0.15043695 0.1085402 -0.16211252
LEK -0.047751117 0.17324255 -0.09095253 -0.19586419 0.0057338807 -0.047710594 -0.16795847 0.21780837 0.021770416 -0.0780015 0.086878635 0.27579007 0.037848268 -0.1064634 0.062724926 -0.020305458 -0.03767511 -0.18095286 -0.2055099 -0.054851256 -0.19917403 0.08811028 0.088140644 -0.031263873 0.16863224 -0.13094795 -0.14225872 -0.1812594 0.0676202 -0.13662979 -0.07119303 -0.1714237 0.111953124 0.17125064 0.09318188 0.076681055 0.05059065 -0.25689334 -0.14541607 -0.11338638 0.066159524 0.15664993 0.21290697 0.09417428 -0.0054278593 -0.1305368 0.13363205 0.42715043 0.09748044 -0.09732515 7.86589e-05 0.19997798 -0.03142538 0.0342349 -0.21604453 -0.03935346 -0.64944506 0.027085004 -0.2425216 -0.0011263445 0.24499306 0.18840283 0.46996874 0.18979776 0.058524065 0.053779863 0.29409003 0.24373263 0.10742793 -0.062211435 0.10428482 -0.08232084 0.100065924 -0.065639414 -0.22032109 -0.07253011 0.16825867 0.053872596 0.28403232 -0.12630047 0.271857 0.41909012 -0.10196102 0.12566374 -0.006197862 -0.106322505 0.10080388 -0.31115913 0.13593379 -0.08492303 0.0051235734 -0.4546882 0.14190944 0.5347134 0.021096706 -0.2527839 -0.054005176 -0.14611144 0.09685204 -0.1710262
RLA -0.04098052 0.15925032 -0.07778232 -0.18075381 0.006952529 -0.045115516 -0.15133418 0.2014037 0.019622535 -0.075067736 0.0726648 0.25017655 0.03763429 -0.098721914 0.058517914 -0.0100812325 -0.039605595 -0.1581166 -0.17908685 -0.050569016 -0.17993948 0.080292165 0.080738895 -0.028917845 0.1450849 -0.120133325 -0.13399918 -0.15846361 0.059392918 -0.12576924 -0.0631277 -0.15051976 0.103903964 0.15055989 0.088561974 0.07391974 0.04993521 -0.22550051 -0.13602307 -0.09994852 0.058830805 0.1354295 0.19170181 0.08763724 -0.0046097976 -0.11354791 0.13152015 0.3816106 0.08484931 -0.09128551 -0.008718725 0.18421793 -0.026973154 0.036020033 -0.19788654 -0.036710363 -0.57710457 0.026886865 -0.22350101 -0.004842854 0.21731333 0.16681686 0.42351598 0.17437953 0.056737274 0.045281693 0.26247573 0.21422215 0.093327835 -0.06383546 0.08768152 -0.069644496 0.0877291 -0.06405235 -0.20013629 -0.069502026 0.15438405 0.044635866 0.2573155 -0.123300076 0.24480557 0.37992787 -0.08994991 0.11495414 -0.005266454 -0.09328354 0.09348867 -0.27759615 0.12301104 -0.07267736 0.0036229582 -0.41003057 0.1226488 0.48334298 0.020868035 -0.23228209 -0.047333963 -0.13016993 0.08877152 -0.15104099
ALL -0.032520946 0.14628951 -0.07537688 -0.16411832 0.0056971977 -0.03810803 -0.14009081 0.18969204 0.016042195 -0.073522426 0.066871315 0.23213676 0.026642835 -0.09514412 0.052926105 -0.012237697 -0.037741385 -0.14662208 -0.17641763 -0.03842032 -0.1699296 0.07335989 0.07602994 -0.026798181 0.14291552 -0.107867025 -0.12174222 -0.1467401 0.05591156 -0.11316977 -0.05403629 -0.14722048 0.09368339 0.15114595 0.07995889 0.06866586 0.03964155 -0.2129438 -0.131727 -0.099934034 0.050882068 0.13225071 0.18064916 0.07770233 -0.013770266 -0.11113473 0.11425623 0.3522572 0.078903444 -0.084046036 0.00036946975 0.17788272 -0.028763281 0.028773073 -0.18858495 -0.031215198 -0.5500481 0.025510643 -0.20572424 -0.004979715 0.205643 0.15854321 0.39201075 0.16357683 0.05042057 0.043630317 0.2527158 0.2034565 0.087218404 -0.055590633 0.086231016 -0.071264215 0.08418837 -0.05462683 -0.18652968 -0.05808939 0.14750744 0.040580828 0.24025832 -0.109412335 0.2372922 0.35613266 -0.077876195 0.09916029 -0.00047946733 -0.08657791 0.08454631 -0.25984228 0.11109301 -0.062050194 0.0023586454 -0.39060956 0.110201605 0.44919902 0.020058827 -0.2159729 -0.051844392 -0.122884125 0.08276948 -0.14545321
LLE -0.035130806 0.15455826 -0.08236737 -0.1798621 0.0075850324 -0.040328518 -0.15159792 0.19554313 0.014686984 -0.072634675 0.07624297 0.24876902 0.03220694 -0.10361531 0.052690968 -0.011276652 -0.042371478 -0.158934 -0.181356 -0.04985969 -0.17670648 0.082221895 0.07412807 -0.026255889 0.14550866 -0.11829158 -0.1315532 -0.15745634 0.05712907 -0.11808814 -0.055361968 -0.15311235 0.09815024 0.15034916 0.084714666 0.0683111 0.046617452 -0.23222478 -0.12977037 -0.10273199 0.058414143 0.13394533 0.18678267 0.085149676 -0.007942204 -0.11331585 0.12080572 0.37718144 0.088182345 -0.09556659 -0.0010819442 0.19013394 -0.025770238 0.035368733 -0.19247314 -0.033861794 -0.57845837 0.019838162 -0.22441536 -0.0050467574 0.21813117 0.1756509 0.41704366 0.17933723 0.05596507 0.04178378 0.26713628 0.21733312 0.08906148 -0.055560116 0.09088494 -0.066399425 0.081060186 -0.056338497 -0.20163456 -0.06642037 0.14558157 0.047773816 0.2581353 -0.11399206 0.24640901 0.37233415 -0.09045761 0.114719994 -0.0088163065 -0.090650395 0.09184862 -0.2698951 0.11955574 -0.06698208 0.0017051336 -0.4090082 0.123423815 0.4801998 0.0131100295 -0.22314519 -0.05559538 -0.13845842 0.09454427 -0.15434389
ALS -0.036830436 0.16114889 -0.07975631 -0.18826126 0.01009088 -0.047512792 -0.16016304 0.20590691 0.023090938 -0.08061704 0.07970937 0.25414157 0.04055352 -0.100567475 0.06251298 -0.018979365 -0.033831593 -0.16888084 -0.19101447 -0.049474157 -0.19106553 0.08838836 0.08311647 -0.025088735 0.1561666 -0.121108554 -0.13835675 -0.17041299 0.058504917 -0.12679783 -0.061427284 -0.16411336 0.11093417 0.16268869 0.0878597 0.077234134 0.046575274 -0.24279118 -0.14449908 -0.11217944 0.054231416 0.13955432 0.19775571 0.09072511 -0.0035826971 -0.12198232 0.13195415 0.39662272 0.08962144 -0.09203472 -0.005734349 0.19584587 -0.02943758 0.03953933 -0.19929934 -0.031136738 -0.607529 0.016506774 -0.22751786 -0.0058193593 0.22475721 0.17787528 0.43705252 0.17893973 0.063381925 0.04953256 0.27254042 0.22919077 0.09567321 -0.06506794 0.09648973 -0.07490533 0.08619168 -0.06153482 -0.20692909 -0.06438717 0.15716475 0.04270945 0.26876035 -0.11737521 0.26267633 0.3978815 -0.08846214 0.12110124 -0.004599346 -0.08979095 0.09031946 -0.29157647 0.12042375 -0.071796365 0.006318918 -0.42773172 0.13174607 0.49665415 0.014800393 -0.23517983 -0.055972442 -0.14244029 0.09757003 -0.15407161
AGK -0.033074427 0.15405552 -0.08406579 -0.17879105 0.009879907 -0.044115063 -0.14988774 0.1947721 0.016043335 -0.07175803 0.070015855 0.2390197 0.03653873 -0.10418622 0.05456127 -0.01842306 -0.041670986 -0.15305288 -0.17750579 -0.050603155 -0.17845215 0.08218024 0.0729536 -0.028456777 0.14822999 -0.11753716 -0.13321911 -0.1560561 0.0612754 -0.11505685 -0.06270531 -0.15115939 0.09888419 0.15322699 0.081402406 0.06441667 0.040891998 -0.22810532 -0.13743529 -0.10428291 0.054421328 0.13697304 0.18433991 0.0821713 -0.00676909 -0.10692914 0.12560625 0.37234747 0.08355922 -0.08739797 -0.0060197255 0.18342888 -0.023091502 0.037845034 -0.18757626 -0.0349209 -0.57347006 0.01922262 -0.21306638 -0.004533586 0.21957141 0.16879813 0.41468433 0.17750837 0.050612267 0.046068467 0.2640864 0.21564113 0.090008065 -0.061990306 0.0847621 -0.065054625 0.08342782 -0.05509756 -0.20082998 -0.06728157 0.1443282 0.04120215 0.25126225 -0.11565206 0.24641983 0.36809087 -0.08565771 0.10433995 -0.007953204 -0.08736343 0.08579719 -0.275363 0.12123335 -0.07070406 -0.0019075482 -0.40842235 0.12288182 0.47292814 0.019061772 -0.22962622 -0.04838098 -0.12775673 0.093214095 -0.14817376
AGA -0.035060722 0.1679062 -0.083203025 -0.19224665 0.0072219376 -0.05073172 -0.1652489 0.21611154 0.015240607 -0.07469868 0.07569318 0.26763082 0.039782744 -0.10549221 0.062234987 -0.0114615 -0.04003081 -0.16807196 -0.19606426 -0.04933436 -0.1895122 0.08175653 0.083588235 -0.033595238 0.15820198 -0.12977403 -0.14639015 -0.16725002 0.06606722 -0.13816425 -0.060705323 -0.1685024 0.10704915 0.16246429 0.093787126 0.075826794 0.050705258 -0.25054532 -0.14334878 -0.11317327 0.06168785 0.15115297 0.19811073 0.09061915 -0.012266706 -0.12283884 0.14066014 0.40777883 0.09283578 -0.10349147 0.0024169234 0.20153667 -0.025466682 0.04027252 -0.20980997 -0.03495801 -0.62103975 0.021442577 -0.2403645 -0.003803778 0.23618406 0.18478164 0.45832798 0.18933184 0.060522046 0.051006038 0.28219128 0.23386282 0.101470575 -0.06303596 0.098164916 -0.08095883 0.092508994 -0.064586364 -0.21502064 -0.0732029 0.16309613 0.047562722 0.2728769 -0.12685977 0.264721 0.4010417 -0.096788675 0.11321866 0.0003227181 -0.102882534 0.10208635 -0.29605818 0.12217767 -0.08139059 -0.00024583467 -0.43846947 0.124861024 0.51047254 0.020154668 -0.25035885 -0.053982496 -0.14102575 0.09319495 -0.16641377
GKL -0.043047443 0.16728942 -0.082309574 -0.19362868 0.0064463997 -0.050405003 -0.16183987 0.21014616 0.019575361 -0.07631525 0.08037461 0.2585141 0.039064616 -0.103449285 0.054058332 -0.0120754605 -0.04176275 -0.16709062 -0.19022469 -0.05368913 -0.18714254 0.08232272 0.077912085 -0.029672686 0.14914396 -0.12327553 -0.14019601 -0.17346996 0.058902167 -0.13389999 -0.06703621 -0.1649111 0.10637459 0.16565482 0.0881461 0.07793356 0.051916726 -0.24356239 -0.13984634 -0.11261147 0.061995216 0.14349243 0.19523528 0.088080555 -0.013282218 -0.11921749 0.13050668 0.39737996 0.09310819 -0.1011162 0.0016577353 0.19634607 -0.02545569 0.034472704 -0.20547366 -0.03740915 -0.61116564 0.023744676 -0.23900199 -0.0030511932 0.2299479 0.17315793 0.449765 0.18537207 0.0630725 0.04051092 0.27754626 0.22737065 0.103872664 -0.062296007 0.0945158 -0.07821602 0.09014571 -0.063883215 -0.20815687 -0.070630915 0.15521242 0.042763278 0.26808304 -0.12762494 0.25885215 0.39308715 -0.09618481 0.1127094 0.00049080787 -0.10219691 0.09157656 -0.2881895 0.12281496 -0.08015222 0.0042928467 -0.43390006 0.12349989 0.5066527 0.015145814 -0.24717656 -0.053839233 -0.14095236 0.09666702 -0.1553305
LAR -0.046633244 0.16928338 -0.08202687 -0.19827132 0.008508975 -0.04330206 -0.16474023 0.21797225 0.019222455 -0.079830565 0.08510331 0.2695141 0.03939403 -0.10613678 0.059449054 -0.009434323 -0.040799506 -0.16947953 -0.19344527 -0.05171181 -0.19982739 0.09108652 0.0876964 -0.030524809 0.1579802 -0.13145284 -0.14115426 -0.1711023 0.06912745 -0.13548262 -0.062360507 -0.1639239 0.11286096 0.1643595 0.08924159 0.07670326 0.05078206 -0.25117505 -0.14227276 -0.107945316 0.055478446 0.15121666 0.20740856 0.0956897 -0.008266036 -0.11775115 0.13835604 0.40782842 0.0933135 -0.10311202 0.002053489 0.2004658 -0.029451486 0.038015954 -0.2161411 -0.032353334 -0.6267587 0.022685172 -0.24443659 0.0015088755 0.23990545 0.19127968 0.46043882 0.18853372 0.064279474 0.050115936 0.28600678 0.23529321 0.099007316 -0.06819324 0.09990793 -0.08101131 0.09968847 -0.06315358 -0.21980324 -0.070011884 0.15907364 0.054621436 0.27946 -0.12097559 0.27069664 0.40804496 -0.09888524 0.12552893 0.0001715425 -0.10107399 0.103450544 -0.30062753 0.12898986 -0.08243173 0.003990634 -0.4481609 0.12675357 0.51302147 0.018970808 -0.24494162 -0.04914594 -0.14297387 0.097300045 -0.16334505
LAE -0.041613203 0.17111158 -0.089832686 -0.19052058 0.012217147 -0.045415543 -0.16076252 0.21219447 0.026112761 -0.07454733 0.08652081 0.26473105 0.03745087 -0.10431953 0.057887416 -0.018464223 -0.038125914 -0.17059225 -0.19961469 -0.054317184 -0.19332927 0.09054489 0.07909383 -0.029445771 0.15726623 -0.13159426 -0.14733264 -0.17612667 0.07104262 -0.13348582 -0.06350267 -0.16481374 0.112677775 0.17039289 0.094628416 0.07388539 0.04841394 -0.24597867 -0.14142758 -0.11489614 0.05799258 0.1498074 0.20085913 0.0885811 -0.013773297 -0.122609235 0.13326335 0.40205 0.094828345 -0.10301457 -0.0074205976 0.20443298 -0.026208088 0.039846983 -0.21088567 -0.028689945 -0.6206536 0.025746629 -0.24044587 -0.005867088 0.23410286 0.18377411 0.4600264 0.1929371 0.063743755 0.047563925 0.2849125 0.23418333 0.10616044 -0.058918495 0.09388487 -0.08051938 0.091397375 -0.067810275 -0.21866092 -0.072563715 0.16445196 0.04931852 0.27523637 -0.12752531 0.26848608 0.40330938 -0.09885671 0.12330623 -0.0037344028 -0.09457389 0.10028646 -0.29256016 0.1291584 -0.07534688 0.0029809643 -0.44026458 0.1344429 0.5097524 0.015442843 -0.2507229 -0.050393663 -0.13845712 0.09674363 -0.15907307
NGK -0.042692605 0.15961638 -0.079906784 -0.18430276 0.01377626 -0.045465328 -0.1498238 0.2026299 0.02293941 -0.07882956 0.07595786 0.25386465 0.03787527 -0.10200414 0.056625426 -0.008616241 -0.03779524 -0.15699863 -0.18325277 -0.044945166 -0.18401347 0.08634229 0.07668549 -0.028745547 0.14983377 -0.120317295 -0.13747655 -0.16724311 0.061705176 -0.12846594 -0.058987916 -0.15581958 0.10079745 0.15355887 0.07996116 0.075641565 0.05189746 -0.23879284 -0.13942336 -0.11056621 0.054916266 0.14090408 0.1875207 0.08605646 -0.0031346292 -0.116760835 0.12652993 0.38230804 0.08662825 -0.09761653 -0.004482921 0.18847337 -0.022042762 0.033360444 -0.1995871 -0.034474365 -0.596474 0.0216736 -0.2314631 0.0025834634 0.22386792 0.17138237 0.42940155 0.18369918 0.059838638 0.041124795 0.26618728 0.22332275 0.09347612 -0.058545902 0.09057416 -0.07657014 0.09190749 -0.06018577 -0.20535351 -0.06942282 0.15327547 0.05083751 0.26463377 -0.120996356 0.24878643 0.38664034 -0.090516135 0.108784884 -0.0069503128 -0.08771611 0.091870114 -0.27490202 0.11425881 -0.073143624 0.0048995353 -0.41828614 0.1284675 0.49037173 0.022199946 -0.23601715 -0.05715071 -0.13616544 0.09569656 -0.14934543
DGK -0.03988976 0.17603752 -0.09740409 -0.20982392 0.009141157 -0.051879328 -0.17106493 0.22352786 0.0198483 -0.08793617 0.0923072 0.28221083 0.04131363 -0.11838363 0.06133619 -0.011798481 -0.040626258 -0.18163826 -0.21283919 -0.04849759 -0.20437498 0.08877912 0.084444106 -0.03611852 0.17178124 -0.13659374 -0.14738643 -0.18241587 0.0681502 -0.13667488 -0.07341987 -0.18109599 0.12174759 0.17158794 0.09036445 0.073967285 0.05091762 -0.26368544 -0.15759796 -0.12150505 0.07138557 0.16012526 0.2165358 0.10088631 -0.00943954 -0.13013583 0.14676206 0.43630964 0.09681516 -0.10646761 -0.002208803 0.21713305 -0.035810012 0.040893078 -0.22294717 -0.040556025 -0.6695747 0.028583264 -0.2527258 0.00021161482 0.252106 0.1994665 0.48980972 0.20658119 0.06658453 0.052102167 0.31024513 0.25480267 0.112435624 -0.06604009 0.100780025 -0.085530326 0.10547808 -0.06698581 -0.23298942 -0.08038039 0.16808072 0.05339979 0.29569614 -0.13719004 0.2856184 0.4391875 -0.098620705 0.12783986 0.00089696783 -0.10481419 0.106135115 -0.31478986 0.13146989 -0.07988245 -0.0014113442 -0.47437295 0.14159547 0.55068415 0.024458712 -0.2674586 -0.054859623 -0.15454766 0.11101959 -0.17226242
GKT -0.03844168 0.13899048 -0.07642185 -0.16634035 0.0085916715 -0.03700742 -0.14238752 0.18747514 0.0148269385 -0.06615381 0.076388486 0.23064385 0.032493107 -0.08985313 0.054665923 -0.009241519 -0.03319693 -0.15344997 -0.17330462 -0.04472314 -0.1681666 0.07402245 0.07241318 -0.02583731 0.13976987 -0.10768681 -0.12506266 -0.1519856 0.062442224 -0.11067565 -0.05785047 -0.14068255 0.09787954 0.14755414 0.076489285 0.06446233 0.039329268 -0.2156024 -0.12774032 -0.10046446 0.046786487 0.12818044 0.17923482 0.079552 -0.008195392 -0.10251395 0.11414327 0.3579196 0.077119865 -0.08393977 -0.005978848 0.16993956 -0.02562682 0.027742576 -0.18557572 -0.027833166 -0.542559 0.016893398 -0.2115297 -0.000993585 0.20038357 0.16346258 0.39350292 0.16528282 0.057199053 0.04166222 0.2447339 0.20626809 0.087500684 -0.054302484 0.07807127 -0.07188548 0.08641925 -0.05487978 -0.18243794 -0.06342011 0.14515099 0.047958184 0.23880479 -0.10666244 0.23474921 0.35795045 -0.082823075 0.108890995 -0.0045547546 -0.08670812 0.09038785 -0.2601215 0.113907985 -0.07023181 -0.0022079353 -0.39056888 0.10977532 0.44937107 0.022448739 -0.21061502 -0.043869972 -0.12583502 0.08211137 -0.1362112
GIT -0.026463049 0.12772506 -0.07102764 -0.14116809 0.0135528585 -0.03794645 -0.12553589 0.15482 0.01709529 -0.057875086 0.06360713 0.2010841 0.029574992 -0.07875395 0.04721281 -0.00835204 -0.02710649 -0.12281083 -0.14235264 -0.039769698 -0.14630468 0.06782102 0.06856836 -0.020820659 0.11979928 -0.09562413 -0.10744849 -0.13426732 0.050345518 -0.099952035 -0.04868298 -0.12969017 0.08726384 0.1292851 0.0686093 0.06095314 0.03672861 -0.18972163 -0.10932765 -0.08374728 0.04542824 0.11487697 0.15018263 0.06355624 -0.002434435 -0.0919024 0.09666891 0.3076938 0.07300052 -0.077046365 0.000972091 0.15395316 -0.016781654 0.033102356 -0.15843497 -0.027390454 -0.46858892 0.016924044 -0.18297367 0.003848696 0.17879906 0.13790941 0.34410936 0.14944841 0.045057185 0.031284746 0.21608496 0.17283118 0.080025814 -0.05396571 0.07429654 -0.05637142 0.06453332 -0.04955796 -0.15953776 -0.050146323 0.12602118 0.031387452 0.21229029 -0.09356975 0.20382312 0.3079276 -0.0690337 0.08574479 -0.007860595 -0.07258556 0.070785835 -0.22712906 0.09053442 -0.059223626 0.006787408 -0.3288587 0.09850438 0.3856535 0.015679453 -0.18825382 -0.04567137 -0.1062783 0.07910389 -0.11914776
MKA -0.04194366 0.1695281 -0.083698586 -0.19631892 0.013498736 -0.03997075 -0.15754403 0.20999917 0.024197308 -0.07560022 0.07963909 0.2686822 0.041444037 -0.106348485 0.058796186 -0.010506654 -0.038776238 -0.17274718 -0.19008696 -0.046281673 -0.19311099 0.09032877 0.07691807 -0.03023023 0.1635569 -0.1230619 -0.13843852 -0.17359479 0.06450893 -0.12790266 -0.06415928 -0.16586216 0.10962581 0.16252904 0.093680926 0.06835649 0.04381535 -0.24418618 -0.14324199 -0.10902411 0.06228468 0.14433296 0.20030256 0.09141954 -0.011711415 -0.12653351 0.13031144 0.4078305 0.08956306 -0.10009342 -0.000112878566 0.20472665 -0.023976622 0.040222894 -0.20981617 -0.036875572 -0.62398136 0.024091959 -0.24099739 0.0015057533 0.22886524 0.18626638 0.45504484 0.18899143 0.059024468 0.05294897 0.2901995 0.23712365 0.10024079 -0.060699623 0.09469586 -0.07806552 0.09406341 -0.06830596 -0.22057602 -0.075732574 0.15866543 0.049824253 0.2719939 -0.12583776 0.26452503 0.4017328 -0.09921975 0.122514695 0.00020243095 -0.09264169 0.10180178 -0.29863283 0.12926933 -0.083043076 0.0061005 -0.44052243 0.13048862 0.51584 0.016208515 -0.24766606 -0.05359158 -0.1376303 0.10254061 -0.1631213
AAA -0.041942604 0.15911616 -0.07492329 -0.17426439 0.01335651 -0.04242351 -0.1494133 0.19560616 0.018548882 -0.06941667 0.075245366 0.25040132 0.03211602 -0.09773531 0.056505587 -0.0193765 -0.03379426 -0.16174069 -0.18274061 -0.045682397 -0.18331999 0.08392963 0.079610065 -0.029754821 0.14895509 -0.11667775 -0.12903997 -0.16404103 0.062115397 -0.12536605 -0.05593124 -0.14893064 0.10692061 0.15275376 0.08734568 0.06529749 0.04875076 -0.23150192 -0.12939912 -0.10346424 0.059535787 0.13683954 0.18319416 0.07897131 -0.01263961 -0.112498485 0.121371664 0.38053542 0.08659653 -0.08827799 -0.0046934565 0.18663947 -0.031211736 0.037610747 -0.18970534 -0.036447544 -0.5801191 0.024612175 -0.22222696 -0.0066625103 0.21886279 0.1717434 0.41846302 0.17235054 0.05690077 0.040402997 0.27090767 0.21406068 0.092280015 -0.06480304 0.090043046 -0.07385646 0.08961407 -0.06353554 -0.20219031 -0.06840004 0.14785983 0.0439242 0.25249815 -0.11970855 0.2476894 0.38127372 -0.08641342 0.11540041 0.0010072354 -0.09307354 0.09206213 -0.27341807 0.1123354 -0.07225349 0.0027125168 -0.41123632 0.12411946 0.47846556 0.014551139 -0.23178506 -0.045389846 -0.1299448 0.089266725 -0.14895864
FLS -0.03462007 0.13707404 -0.06781572 -0.15843666 0.0075515304 -0.042590767 -0.13258603 0.18272173 0.014825765 -0.06341844 0.06982072 0.21671237 0.034141548 -0.09312884 0.048590656 -0.007499786 -0.029881792 -0.14501894 -0.1673755 -0.047454264 -0.16489457 0.07434416 0.07027868 -0.023182752 0.13601041 -0.11195084 -0.11789058 -0.13939928 0.04941165 -0.111724764 -0.051511016 -0.14291623 0.09650011 0.1420301 0.07857105 0.059474442 0.03786213 -0.20742412 -0.12350763 -0.08875277 0.052440997 0.12055323 0.1707008 0.080829374 -0.004201124 -0.10011139 0.11355146 0.34698963 0.07358363 -0.07779106 -0.003172177 0.16930607 -0.018981418 0.032431863 -0.17794423 -0.029629624 -0.5214039 0.022637127 -0.19680676 0.004124073 0.19885807 0.15534239 0.38062754 0.15945783 0.046361018 0.034520444 0.2400877 0.20037882 0.082769565 -0.05245775 0.081388995 -0.062545694 0.07981696 -0.051464565 -0.18499772 -0.063933074 0.13174738 0.042495508 0.23146968 -0.10757629 0.21975538 0.34062192 -0.084930055 0.106236495 -0.006142013 -0.08756385 0.08163192 -0.251962 0.10693495 -0.06046509 -0.003031141 -0.3736394 0.11160184 0.4373817 0.011924714 -0.20816356 -0.049372833 -0.118263364 0.083267 -0.13150229
SGG -0.03436075 0.15878677 -0.07570588 -0.17612156 0.008327021 -0.04331853 -0.155468 0.19349225 0.02321586 -0.07763939 0.07501701 0.24516879 0.030427363 -0.1030337 0.053117 -0.0148933595 -0.034750298 -0.16103655 -0.18690233 -0.042526945 -0.17775196 0.08169842 0.07745902 -0.029654596 0.15331067 -0.11598599 -0.12625214 -0.15724795 0.06688932 -0.12581785 -0.063653685 -0.15165597 0.098423734 0.14998116 0.08581137 0.065299086 0.044034537 -0.22781682 -0.13804224 -0.10038935 0.05524335 0.13909557 0.18794046 0.08102774 -0.010509969 -0.112041816 0.12636194 0.38096416 0.08086842 -0.087248124 -0.004079615 0.18138397 -0.0247663 0.035748634 -0.19616921 -0.033263836 -0.58358353 0.027450815 -0.22152282 -0.0044335313 0.22178166 0.17220108 0.42540175 0.17399852 0.051963028 0.04515627 0.2654285 0.21762933 0.09860022 -0.061235406 0.08730487 -0.07131527 0.08553745 -0.05879086 -0.20138925 -0.065129325 0.15026407 0.04790377 0.26286474 -0.119665526 0.25060725 0.3756751 -0.086280756 0.11296646 -0.00028884973 -0.08773542 0.08773068 -0.27072182 0.115108654 -0.070889235 -0.00052712363 -0.41647148 0.11919075 0.47705817 0.016496856 -0.23130083 -0.04707362 -0.12987661 0.08946403 -0.14929186
KEI -0.028736481 0.13650693 -0.073014095 -0.1567267 0.00984168 -0.033987407 -0.13518868 0.17403327 0.020455258 -0.059413902 0.06452478 0.21811783 0.029211555 -0.084099874 0.046998866 -0.01005901 -0.0315021 -0.1346428 -0.15883581 -0.044343106 -0.15483204 0.075623244 0.066815704 -0.021647908 0.12848279 -0.10307597 -0.11101019 -0.14422096 0.05692132 -0.10872411 -0.055330783 -0.13000457 0.08801216 0.13106279 0.07000798 0.0632069 0.038037084 -0.20204338 -0.11866381 -0.08649243 0.052478593 0.11331566 0.16352476 0.068659425 -0.009758959 -0.095767826 0.10914746 0.32467538 0.07769777 -0.07472409 0.0009562561 0.16309732 -0.01993034 0.027616218 -0.16702236 -0.02765818 -0.5065422 0.019917991 -0.1921187 -0.0063534784 0.1901806 0.14497568 0.36506295 0.15829736 0.048964147 0.033033475 0.23444937 0.19426073 0.083903775 -0.055051632 0.075486496 -0.061525382 0.07563155 -0.057838034 -0.17014891 -0.055443108 0.13040763 0.035921305 0.22534274 -0.10179936 0.21738271 0.33214304 -0.07545485 0.09099331 -0.0066472623 -0.07475731 0.07900133 -0.23591039 0.1057983 -0.06073956 0.0045975964 -0.35195962 0.10485773 0.41209626 0.0131054 -0.19870418 -0.04300664 -0.11797018 0.0772595 -0.12490717
LER -0.035293818 0.15540883 -0.0796672 -0.1754759 0.012056462 -0.047746234 -0.15353051 0.19654089 0.018160464 -0.076946594 0.079997405 0.24115518 0.02802582 -0.09864519 0.05610619 -0.013834718 -0.03512967 -0.14954254 -0.1774434 -0.043545835 -0.17457268 0.076125085 0.07697894 -0.023186082 0.14617352 -0.11356661 -0.1289751 -0.15997797 0.06076364 -0.1211464 -0.06351592 -0.15321934 0.09800265 0.15463534 0.07933704 0.06987376 0.041217156 -0.22922768 -0.13093637 -0.10301936 0.054725178 0.13809177 0.18524146 0.08373143 -0.006741641 -0.11296457 0.11951279 0.37760764 0.084338345 -0.08692197 -0.0021233866 0.18144514 -0.0257631 0.03922992 -0.18583399 -0.02814669 -0.56820565 0.021609781 -0.22207406 -0.0018648171 0.21636567 0.17123982 0.4187436 0.17022759 0.04908859 0.03806635 0.26356962 0.21031362 0.095823094 -0.0590674 0.08667264 -0.06593836 0.08768975 -0.05814974 -0.1910677 -0.062140595 0.14923131 0.046745494 0.25226897 -0.11090705 0.24261194 0.3743075 -0.08580369 0.11089438 0.0013593847 -0.08544915 0.09400049 -0.2731509 0.113854274 -0.07406544 -0.0014654815 -0.40533513 0.12026856 0.4656824 0.017334843 -0.22672188 -0.04993545 -0.13385056 0.08570643 -0.14851962
AAD -0.038987067 0.15192045 -0.07311045 -0.1763416 0.010174065 -0.04300203 -0.14336659 0.18545407 0.020581862 -0.06784619 0.06971693 0.23346876 0.036884442 -0.090684965 0.055765554 -0.008944459 -0.0391318 -0.15024945 -0.17111847 -0.04231168 -0.16864991 0.075433165 0.074110314 -0.028837154 0.14180751 -0.10812451 -0.12580618 -0.15839714 0.059198204 -0.12165672 -0.05480097 -0.14217407 0.10363275 0.14696294 0.085343115 0.07144564 0.04185728 -0.21925575 -0.124849826 -0.099194616 0.051432107 0.13348842 0.17542659 0.08583166 -0.011528006 -0.109981015 0.12337723 0.36892965 0.08542074 -0.08209547 -0.0018571699 0.18122073 -0.025956178 0.03515674 -0.18365116 -0.027340522 -0.55713254 0.025150185 -0.21574089 -0.008289567 0.20395239 0.16555041 0.40647504 0.16433057 0.051071268 0.045128968 0.25135806 0.2115973 0.09288404 -0.055486854 0.09091132 -0.06283395 0.07999563 -0.06049958 -0.18895225 -0.061877076 0.14871815 0.042055823 0.25083154 -0.11704682 0.23861074 0.36724302 -0.08576535 0.10115157 0.0008939879 -0.0911349 0.08929899 -0.2625503 0.11628601 -0.06309452 0.0038352474 -0.3905885 0.115269884 0.46088296 0.019733597 -0.22306672 -0.04641734 -0.12674709 0.08530679 -0.14142929
VIV -0.032445572 0.13289496 -0.07040947 -0.16307053 0.007789055 -0.036075857 -0.13295597 0.17264359 0.012385157 -0.06433764 0.063597694 0.22474036 0.032351576 -0.08852187 0.05002744 -0.014761633 -0.03681929 -0.13646227 -0.16174625 -0.037810326 -0.15608418 0.07754492 0.07004138 -0.018560462 0.127026 -0.104128584 -0.115748994 -0.14076401 0.052041575 -0.11119757 -0.055394154 -0.1423332 0.09051643 0.14050129 0.07835705 0.062200915 0.041277092 -0.2096544 -0.12087599 -0.09185572 0.044197023 0.1221715 0.17186308 0.0731318 -0.010082179 -0.10472636 0.11025739 0.33959192 0.07637658 -0.083672054 0.002118526 0.16240028 -0.024998803 0.033003673 -0.1710356 -0.02667964 -0.522715 0.022367004 -0.19543283 -0.0063642473 0.1980468 0.1526327 0.3720611 0.15522167 0.046045862 0.040382694 0.23299477 0.19558945 0.08208209 -0.05000143 0.084456004 -0.061272804 0.08075511 -0.057214726 -0.17551155 -0.05592335 0.1352061 0.04191061 0.23200719 -0.10460669 0.21849675 0.34031397 -0.07688134 0.096814685 0.0021662835 -0.08239329 0.07986491 -0.24025132 0.10592986 -0.06728804 0.0035231798 -0.36969903 0.10703044 0.42856276 0.02222602 -0.20343854 -0.045668174 -0.1171096 0.08251756 -0.13768129
MEE -0.03590497 0.14650287 -0.0725258 -0.17116675 0.008295763 -0.043125194 -0.14935783 0.1855735 0.023158807 -0.07129357 0.07013521 0.23245117 0.03174845 -0.0943152 0.05822833 -0.016968518 -0.03301101 -0.14864658 -0.17572412 -0.040405866 -0.17311484 0.083360426 0.07753051 -0.025058325 0.1456186 -0.10993116 -0.13153422 -0.15357526 0.05609123 -0.117755786 -0.06168215 -0.14838164 0.09491838 0.1440598 0.075338006 0.070364565 0.04935815 -0.22357965 -0.12638247 -0.104416534 0.057651605 0.13609332 0.18482521 0.07768818 -0.011887631 -0.11173663 0.11481283 0.36725906 0.07960474 -0.08542147 -0.0012664692 0.17620648 -0.029846694 0.030047046 -0.18732499 -0.028132401 -0.55507934 0.020559784 -0.21121964 -0.002210369 0.20568594 0.16484366 0.40498543 0.17413653 0.054891184 0.03913991 0.25226727 0.20565517 0.09581993 -0.053840153 0.082536906 -0.07380149 0.08246523 -0.058228973 -0.19303831 -0.062658586 0.14117454 0.045179527 0.24427547 -0.107405536 0.24151492 0.36392447 -0.08946343 0.11168996 -0.0016993586 -0.084131286 0.08515141 -0.26681185 0.109468475 -0.069802776 0.000499284 -0.3946153 0.11734034 0.4621693 0.02356626 -0.2163708 -0.04475085 -0.12916467 0.0916964 -0.14376651
GLG -0.03467306 0.1407397 -0.06947391 -0.15857166 0.008602302 -0.035099905 -0.1319736 0.17706847 0.013981708 -0.068036586 0.06286821 0.21686278 0.03533266 -0.09378682 0.04778653 -0.013429526 -0.027053772 -0.14055607 -0.16427797 -0.046103116 -0.16065715 0.07357552 0.0660275 -0.020877372 0.12679692 -0.10407076 -0.123021625 -0.14577071 0.060403425 -0.115664 -0.054127317 -0.13320963 0.095703766 0.1368609 0.074030004 0.06672554 0.04201375 -0.20663719 -0.11688691 -0.08912461 0.04910776 0.116523735 0.17016484 0.07451922 -0.0045254533 -0.10239771 0.11506206 0.3423684 0.082482 -0.0832476 0.0007916224 0.16833942 -0.019128589 0.027491467 -0.173103 -0.03317179 -0.5233386 0.022470446 -0.19638835 -0.0038179122 0.19822015 0.14944625 0.37362036 0.16354458 0.045777693 0.038622357 0.24177057 0.1944885 0.08308032 -0.05307059 0.07801983 -0.0636573 0.074706934 -0.05844386 -0.18289168 -0.062484637 0.13935828 0.04003371 0.23720382 -0.10845167 0.22346751 0.3437051 -0.08088616 0.09746259 -0.0059515587 -0.085361384 0.08138953 -0.24130306 0.10314458 -0.06435203 0.0018950554 -0.37192017 0.10868722 0.42811725 0.013508886 -0.20645905 -0.047356185 -0.1169023 0.08173691 -0.13745324
VLL -0.034657758 0.15026957 -0.07580105 -0.17053875 0.012773977 -0.04722559 -0.14283459 0.19285382 0.01884522 -0.07199963 0.07538777 0.23877226 0.037112165 -0.09565733 0.04919563 -0.012237906 -0.033209182 -0.14869078 -0.1718919 -0.044351883 -0.17682807 0.0816049 0.081252344 -0.021945206 0.14149567 -0.119243756 -0.121510066 -0.15405534 0.05759388 -0.12095896 -0.060037907 -0.14901559 0.09428475 0.15095946 0.075067356 0.064733535 0.04479019 -0.21857238 -0.13231993 -0.10339702 0.056111738 0.13724491 0.17672373 0.08775705 -0.012638297 -0.110978015 0.11631399 0.36125067 0.07981394 -0.09219529 0.002819327 0.18023929 -0.028661013 0.03921016 -0.18887897 -0.03614431 -0.5612579 0.021010356 -0.2125422 0.004994738 0.20700598 0.16010654 0.40745434 0.17543848 0.048261087 0.0458687 0.25672042 0.21175459 0.09171731 -0.056234185 0.08432038 -0.067616254 0.08547496 -0.06135089 -0.19512928 -0.06594526 0.14104931 0.048066303 0.24967176 -0.11047366 0.23478287 0.36644724 -0.087920755 0.10423233 -0.00049483095 -0.09290561 0.08912805 -0.26007652 0.11351689 -0.065242596 0.00297787 -0.39697754 0.11988093 0.4539687 0.013309871 -0.22580077 -0.044588707 -0.13045165 0.083932966 -0.1470543
EEE -0.035562083 0.1585906 -0.08228416 -0.17851238 0.007527452 -0.0411366 -0.15976846 0.199765 0.016138269 -0.07187891 0.077091515 0.24862249 0.035873048 -0.10255869 0.057217166 -0.010531048 -0.038867425 -0.15406798 -0.18178383 -0.053911623 -0.18104464 0.07874961 0.08002023 -0.02461389 0.15078516 -0.12251936 -0.12814678 -0.15828799 0.062926486 -0.12380626 -0.066165686 -0.15382382 0.10111547 0.15982239 0.08718954 0.07442739 0.041143585 -0.22936815 -0.13661793 -0.10600065 0.057323575 0.13908239 0.19606008 0.086093724 -0.011484189 -0.11738307 0.12407495 0.38549718 0.08545915 -0.092218 0.002537269 0.18691008 -0.029333577 0.038218044 -0.19779393 -0.03058561 -0.5932154 0.019785443 -0.22302851 -0.0060357633 0.21910824 0.17309186 0.4291222 0.17796469 0.0548702 0.042955097 0.27597025 0.22141874 0.0942808 -0.06447902 0.0937217 -0.067173734 0.087685734 -0.05931565 -0.2040044 -0.067029245 0.15058568 0.043279532 0.26214042 -0.123203084 0.24984808 0.38055193 -0.09038276 0.11022655 -0.0007867239 -0.08854567 0.09268438 -0.27966395 0.12028251 -0.06991959 0.0036566262 -0.41855413 0.12250392 0.48388663 0.022643665 -0.23463728 -0.0507723 -0.13294372 0.09068656 -0.14596221
LLK -0.034182128 0.13756053 -0.07830363 -0.16344704 0.010292818 -0.037955657 -0.14228897 0.17669758 0.020220842 -0.06581409 0.073762394 0.2257116 0.034773014 -0.0949979 0.05427128 -0.016444849 -0.0313971 -0.14796266 -0.16251712 -0.039575923 -0.16204762 0.07681726 0.06809711 -0.024238367 0.13255142 -0.11115449 -0.12630582 -0.15246546 0.052181467 -0.112788685 -0.051322855 -0.13655365 0.09059502 0.13809748 0.07140722 0.0631663 0.039404683 -0.20713736 -0.12206269 -0.097293034 0.05105276 0.12326654 0.16993271 0.079585 -0.009276516 -0.10426615 0.11549604 0.3432598 0.07526403 -0.08445241 0.0022285613 0.17082189 -0.022468124 0.03351798 -0.17360932 -0.030652288 -0.5400613 0.025437513 -0.20508757 0.0024381217 0.20024624 0.15873407 0.39153716 0.16064797 0.053952653 0.044054437 0.24765532 0.1973863 0.090682134 -0.059172228 0.08689857 -0.06263026 0.0811779 -0.060999494 -0.18869323 -0.055154454 0.14161873 0.045808822 0.23619089 -0.10803777 0.22612195 0.3509652 -0.0778788 0.099564046 -0.0024952895 -0.08933683 0.08434556 -0.24879721 0.103100345 -0.069220565 0.0017342527 -0.38068712 0.10986742 0.44364566 0.016123757 -0.20685945 -0.044552285 -0.1170645 0.0883678 -0.14265001
SGF -0.03858514 0.15806955 -0.07813325 -0.17795193 0.0069236914 -0.040582854 -0.15327445 0.19583683 0.018296089 -0.07383142 0.07858877 0.24651197 0.03834971 -0.10049255 0.054726 -0.012432731 -0.03403415 -0.16498691 -0.18174145 -0.04466112 -0.18398987 0.08260882 0.079659246 -0.021085441 0.1541341 -0.1245293 -0.1300252 -0.16601808 0.066298105 -0.12926015 -0.055454526 -0.16131791 0.098405614 0.16086634 0.079233736 0.076016866 0.051466636 -0.2300895 -0.1358234 -0.103000104 0.059058055 0.14344881 0.19273916 0.08949724 -0.010473512 -0.111620806 0.13016184 0.38400623 0.09183551 -0.088965505 -0.0045337416 0.1868583 -0.024730848 0.039489686 -0.1980721 -0.034440167 -0.58910394 0.027210573 -0.2253505 -0.0024871572 0.22134173 0.16614431 0.42533085 0.17537206 0.055648737 0.04418532 0.27446958 0.21822695 0.09933029 -0.061160374 0.09023845 -0.074445374 0.08690735 -0.06339062 -0.20415951 -0.060148157 0.14890161 0.042761855 0.25775692 -0.119885325 0.25117162 0.37873805 -0.09304191 0.10837936 -0.0026533268 -0.0918492 0.09434173 -0.28298372 0.12151454 -0.07147235 0.0005170849 -0.42179427 0.11752117 0.4815223 0.017586822 -0.23474604 -0.050969936 -0.13325396 0.0892426 -0.15000582
AAG -0.03599326 0.15329541 -0.08107975 -0.1716847 0.009772211 -0.044771943 -0.14961493 0.19116293 0.023221072 -0.073341474 0.06976798 0.24304661 0.029637575 -0.10290812 0.052315496 -0.014899672 -0.035224553 -0.1547623 -0.18090546 -0.047162693 -0.17308891 0.078225136 0.07695643 -0.029586283 0.14750287 -0.11400045 -0.12636423 -0.16218969 0.055495314 -0.12119341 -0.062402777 -0.15601094 0.09900112 0.15052378 0.08384801 0.06770197 0.04482425 -0.22319975 -0.13462773 -0.09694999 0.060554482 0.13551405 0.19007705 0.07999051 -0.008741206 -0.1154578 0.119592056 0.3767334 0.0821318 -0.08639865 0.002554473 0.18791796 -0.021852627 0.037228305 -0.19265138 -0.03829595 -0.57464904 0.020956114 -0.21927708 -0.0026844214 0.21052693 0.17447314 0.42120215 0.17234701 0.05089919 0.03844257 0.26662752 0.21849827 0.09436935 -0.060706154 0.09266772 -0.06829685 0.09019527 -0.057608854 -0.19578628 -0.0673083 0.14681028 0.050368674 0.2611211 -0.114611566 0.2422839 0.37750262 -0.08956488 0.10673977 -0.0041611153 -0.09506091 0.08709803 -0.27552477 0.11741991 -0.06741885 0.0034423796 -0.40551054 0.12106613 0.4682653 0.018558083 -0.22654507 -0.045873016 -0.130366 0.09230163 -0.15314372
STG -0.039851613 0.14506385 -0.07809422 -0.17258435 0.012446459 -0.042490307 -0.14908338 0.1913007 0.01984301 -0.06834426 0.0700601 0.237047 0.027382493 -0.09491321 0.054241203 -0.012360645 -0.041546598 -0.15184557 -0.17599586 -0.044859592 -0.17462027 0.07998409 0.070436224 -0.024482736 0.1478783 -0.11745691 -0.12597646 -0.16066867 0.062772185 -0.11395347 -0.06088179 -0.15132608 0.10133251 0.15468852 0.07741855 0.06650406 0.045426555 -0.22040129 -0.12638432 -0.101463065 0.055049002 0.12684402 0.17774047 0.08406399 -0.009584446 -0.10723553 0.123472124 0.3641379 0.088176966 -0.087643854 0.0019831231 0.17865981 -0.0241322 0.03135316 -0.19306509 -0.036844064 -0.56393 0.026219362 -0.21843666 0.0029407686 0.21231423 0.16995867 0.41234818 0.17078581 0.057268485 0.04720369 0.25957984 0.20785537 0.091818586 -0.053816486 0.09152212 -0.07074802 0.08873527 -0.061070815 -0.1919838 -0.06709102 0.14680645 0.04090872 0.2508354 -0.1085408 0.23567453 0.364148 -0.0855975 0.10844917 0.0016965742 -0.09120813 0.089627065 -0.2652354 0.119490415 -0.07405545 -0.000457684 -0.40071577 0.120401196 0.4673488 0.017661609 -0.2209072 -0.05004807 -0.12821129 0.09022886 -0.1471701
TEK -0.04360041 0.15758641 -0.075236715 -0.17544481 0.010285127 -0.04429822 -0.15301448 0.19989389 0.013272774 -0.07227592 0.07093994 0.24632148 0.03618184 -0.10391572 0.05232001 -0.01155304 -0.037419394 -0.15601471 -0.1838181 -0.05017463 -0.17452937 0.08627889 0.07636038 -0.027119704 0.1483075 -0.122452505 -0.13264531 -0.1602253 0.05579899 -0.119327225 -0.05406615 -0.15605943 0.10184203 0.14782672 0.08752965 0.071678296 0.04132252 -0.22414817 -0.1309884 -0.10683999 0.053361293 0.13809314 0.18276685 0.08532889 -0.005299562 -0.11081854 0.12579545 0.37444672 0.08177257 -0.08826183 -0.007207116 0.18004811 -0.023550093 0.033028215 -0.18898374 -0.036712576 -0.58009017 0.024860578 -0.21920572 -0.004442828 0.21513303 0.16830057 0.4209865 0.17644836 0.055308323 0.046354588 0.26431996 0.2133748 0.09547546 -0.060190327 0.09231021 -0.07215759 0.08563845 -0.06431398 -0.20329452 -0.060947765 0.14597322 0.048474334 0.25776407 -0.11009091 0.24363822 0.37653142 -0.092749886 0.110437185 -0.0051666517 -0.08604504 0.09078975 -0.27710402 0.11897782 -0.07789872 -0.0010570524 -0.40558824 0.12087013 0.47102404 0.021320276 -0.22679828 -0.049787734 -0.1355574 0.09067347 -0.14616907
LKG -0.043227844 0.1586238 -0.0850456 -0.18345948 0.015132238 -0.04711823 -0.15368773 0.1966703 0.01735702 -0.074368544 0.071828164 0.24612838 0.03667919 -0.10322786 0.05043059 -0.01121019 -0.03702807 -0.16126606 -0.1828806 -0.045417495 -0.18175843 0.08059512 0.077548794 -0.028922146 0.14608483 -0.12361985 -0.12773949 -0.16084184 0.064143926 -0.12485628 -0.06318611 -0.15030576 0.101998344 0.15289234 0.08416615 0.0745088 0.04097575 -0.22692508 -0.13700776 -0.09982883 0.057255097 0.14210954 0.18688028 0.08744983 -0.0066574872 -0.11332777 0.12829556 0.3785331 0.08809859 -0.091129676 -0.00062927965 0.1887032 -0.03098789 0.03203529 -0.19746533 -0.029400378 -0.57632834 0.01776863 -0.22015335 -0.0052594296 0.21495205 0.16827357 0.42406687 0.17501518 0.05627537 0.038942683 0.26961902 0.21411927 0.09027343 -0.06036149 0.094738305 -0.067277685 0.08300353 -0.057574634 -0.19512084 -0.060800765 0.1518951 0.041512676 0.26079974 -0.11749966 0.24729279 0.3793022 -0.08366257 0.10898299 -0.002160613 -0.08836257 0.08691395 -0.27883312 0.121664956 -0.06831785 0.008089964 -0.41522104 0.12219379 0.47238874 0.019853966 -0.22781807 -0.05484516 -0.1306525 0.09468903 -0.14801365
ILG -0.03543779 0.14648806 -0.0790363 -0.17881395 0.0152678825 -0.04003715 -0.1453589 0.1921539 0.017680112 -0.07164105 0.07212371 0.237444 0.03441327 -0.0947164 0.052181948 -0.016756482 -0.04122309 -0.15907902 -0.18249507 -0.045126524 -0.17355375 0.0758286 0.07582307 -0.030682115 0.14491923 -0.11661004 -0.13237758 -0.16218923 0.06355733 -0.124802515 -0.057139162 -0.15517117 0.10489234 0.14845951 0.08422791 0.064935036 0.042397432 -0.22136079 -0.1367706 -0.10228037 0.05732886 0.12970747 0.18058142 0.08758806 -0.0118802665 -0.114348486 0.11902263 0.36929148 0.08335218 -0.09355394 -0.005470652 0.18360727 -0.02747003 0.03948601 -0.1855401 -0.02866472 -0.56462604 0.023890281 -0.22190808 -0.0063474886 0.21060216 0.16418587 0.4204503 0.17390704 0.052092046 0.041264415 0.26585972 0.21669379 0.09115824 -0.06033544 0.08719299 -0.07014239 0.08650289 -0.059165236 -0.20146644 -0.06212189 0.14649664 0.04196354 0.24977535 -0.10993662 0.23986416 0.37529108 -0.080783375 0.107178256 0.002248752 -0.08727591 0.093561 -0.27306035 0.112183705 -0.071958154 0.0020899014 -0.405696 0.11814415 0.465348 0.0148309115 -0.22709975 -0.04608564 -0.13399749 0.0917151 -0.14729612
AGL -0.04051374 0.15170953 -0.07495428 -0.18010294 0.009488507 -0.04261552 -0.15121958 0.19250757 0.01651839 -0.07391184 0.074643835 0.24654712 0.03079045 -0.097327195 0.05558367 -0.009563372 -0.03800214 -0.15769154 -0.18181334 -0.04535242 -0.1777621 0.07627506 0.07242041 -0.020366311 0.1449887 -0.113534 -0.12523013 -0.1567151 0.057714295 -0.114927135 -0.055259075 -0.15184149 0.10475655 0.15432534 0.07706474 0.06785373 0.04633293 -0.2253651 -0.12905906 -0.10372515 0.053041104 0.13507272 0.18815267 0.08452209 -0.010948349 -0.10681775 0.12246319 0.36899748 0.08077727 -0.086944476 -0.0032188627 0.1852668 -0.0271439 0.04134124 -0.19288823 -0.03391235 -0.56902254 0.018725935 -0.22218098 0.0030576922 0.21050112 0.16976433 0.41761553 0.17843263 0.05859954 0.040977415 0.25862002 0.21012792 0.09903419 -0.06457363 0.08646459 -0.06556118 0.08262795 -0.062429395 -0.20038778 -0.060951766 0.15391396 0.044083282 0.25281122 -0.11006251 0.24817283 0.37342775 -0.08104076 0.11236837 0.00047113973 -0.087602906 0.08568273 -0.2692756 0.11110007 -0.06655567 -0.0006985925 -0.4108545 0.1255523 0.4719802 0.023832276 -0.2307062 -0.04863042 -0.13131818 0.087002605 -0.15065058
EEG -0.034123436 0.14318201 -0.07833132 -0.16700713 0.009420339 -0.03935117 -0.14802194 0.18910167 0.017592307 -0.06787348 0.07538323 0.23524418 0.02928431 -0.09290549 0.050078847 -0.018252622 -0.033205125 -0.15452139 -0.1775234 -0.049093265 -0.17338505 0.08216686 0.07655203 -0.027376983 0.14704268 -0.11154807 -0.12836313 -0.14781556 0.057460446 -0.119983725 -0.058322005 -0.14363731 0.09821949 0.14285964 0.08058917 0.06442222 0.04117355 -0.22061215 -0.1298645 -0.101064906 0.055093937 0.13018195 0.18346949 0.082261704 -0.0124451835 -0.11114529 0.12580056 0.3671042 0.08549815 -0.09237377 -0.0068405783 0.17904417 -0.026422892 0.028610894 -0.18511876 -0.033756312 -0.5613626 0.020048438 -0.21013518 -0.0048279534 0.2111393 0.16119234 0.40065905 0.16872384 0.0538191 0.046897896 0.25394955 0.2044473 0.09319253 -0.06016089 0.09048386 -0.071502894 0.0817215 -0.06290245 -0.19466595 -0.062901035 0.14148465 0.039016265 0.24750422 -0.10887642 0.24156313 0.36257604 -0.088048615 0.10461769 -0.0025069842 -0.0885957 0.08310373 -0.2672502 0.11310533 -0.07128311 0.0017867122 -0.39706066 0.11275581 0.4574912 0.021342525 -0.22411883 -0.05297956 -0.12656844 0.08543095 -0.14222631
LEE -0.03787268 0.15023555 -0.07293204 -0.16928445 0.011068568 -0.045057576 -0.14289612 0.19208328 0.016668398 -0.06639629 0.07644723 0.24007596 0.036021985 -0.0916374 0.05478433 -0.01379626 -0.03927373 -0.15050627 -0.16933152 -0.041766685 -0.17110816 0.07908158 0.07105137 -0.020714324 0.14718947 -0.112439066 -0.12762767 -0.15940133 0.054433208 -0.11658665 -0.06055272 -0.14716212 0.0949343 0.14757843 0.07893206 0.064565286 0.051265426 -0.21967764 -0.1332181 -0.0963677 0.05722339 0.13155484 0.18498982 0.08682859 -0.00027816626 -0.10953543 0.12164405 0.3671022 0.081140876 -0.090314336 0.0012876164 0.17751087 -0.024467342 0.028805513 -0.18289286 -0.028227035 -0.5606684 0.019444592 -0.21627942 -0.00034380186 0.21372525 0.16541106 0.40732476 0.16660811 0.053687584 0.044719096 0.25037113 0.21314864 0.09524559 -0.053152397 0.09002957 -0.06984636 0.084953725 -0.064241275 -0.19691254 -0.06765378 0.14282493 0.04219986 0.24517436 -0.10950679 0.23752224 0.36137056 -0.08484745 0.10687994 0.00022245197 -0.082502216 0.08772816 -0.26762107 0.113755986 -0.07242949 0.0033221825 -0.39820483 0.12284731 0.4646437 0.02209638 -0.2277721 -0.053576086 -0.12711434 0.094341666 -0.13935956
DTV -0.04007961 0.14784393 -0.08436726 -0.17953402 0.008591006 -0.043768983 -0.14970326 0.1932528 0.019109016 -0.07350602 0.07279067 0.24618442 0.03397032 -0.101801366 0.056993484 -0.010902367 -0.04009513 -0.15448841 -0.1803517 -0.049741898 -0.18012089 0.08447364 0.07145847 -0.027858304 0.14669806 -0.11599274 -0.12974244 -0.1558702 0.061638374 -0.11945711 -0.05744829 -0.15486822 0.10350928 0.15793912 0.08535061 0.0660943 0.04097803 -0.22517782 -0.13599303 -0.10479063 0.05631649 0.13749261 0.18347345 0.08418158 -0.008688304 -0.11244705 0.12666944 0.38069317 0.08417888 -0.09417406 -0.006994134 0.17919908 -0.026221536 0.030993287 -0.191506 -0.036955208 -0.58043003 0.021132974 -0.22013691 0.0016847006 0.21306777 0.16400737 0.42013505 0.17506814 0.05720979 0.04688524 0.2625849 0.21656218 0.08989427 -0.05723393 0.08918299 -0.06875303 0.08683479 -0.05646953 -0.20007327 -0.06307462 0.14441152 0.04957966 0.25587898 -0.11553586 0.24076591 0.37264597 -0.08808937 0.114031136 -0.0060373605 -0.08644652 0.093965605 -0.27364945 0.11101164 -0.06793581 0.0039745946 -0.4046357 0.119935416 0.47252917 0.018765388 -0.23236522 -0.04646175 -0.12837279 0.09078083 -0.14723748
VLE -0.0387977 0.14370996 -0.07279892 -0.1667645 0.00665169 -0.04122707 -0.13989371 0.17843017 0.01649594 -0.0654087 0.06677286 0.22115947 0.033902846 -0.091734804 0.057104345 -0.015064638 -0.031186076 -0.14187253 -0.17051196 -0.038849004 -0.16060181 0.075461276 0.07063876 -0.026337463 0.13343446 -0.10856715 -0.12149146 -0.15310112 0.05930603 -0.10858189 -0.051816925 -0.14125387 0.09413976 0.1410699 0.07795428 0.06508611 0.044874143 -0.20753205 -0.121681094 -0.09185339 0.049323384 0.12949191 0.16855268 0.0805344 -0.0035773506 -0.10268807 0.116494566 0.34685606 0.081795245 -0.08433401 -0.004217707 0.17038238 -0.02088691 0.035813693 -0.17774081 -0.030727465 -0.5289477 0.023722911 -0.20292121 -0.00483999 0.19561788 0.15393247 0.38778853 0.15762442 0.04973745 0.035520703 0.23955359 0.199126 0.08997823 -0.055795968 0.07617875 -0.062178776 0.07603917 -0.05172706 -0.18463525 -0.06025914 0.13646547 0.04710159 0.23543823 -0.11122014 0.22471899 0.35093522 -0.079931945 0.099004015 -0.0016742653 -0.08834854 0.0775712 -0.25421953 0.1118168 -0.0646847 0.0067692837 -0.38018602 0.10964073 0.4346795 0.01784215 -0.20764077 -0.04268863 -0.118122175 0.07914912 -0.13300566
ALA -0.040863458 0.15456332 -0.08455287 -0.18635568 0.016140496 -0.042643532 -0.15077424 0.20678289 0.019266706 -0.07436298 0.0790426 0.25521773 0.031435095 -0.101665646 0.060507096 -0.014004765 -0.04298883 -0.16062605 -0.18590502 -0.050942875 -0.17925425 0.08603152 0.08200497 -0.03394195 0.15465418 -0.12640211 -0.13776672 -0.16041872 0.0584404 -0.12672345 -0.06557874 -0.15929158 0.10532246 0.16053712 0.08093471 0.072423466 0.050993104 -0.23198602 -0.13844037 -0.10442724 0.053968284 0.13511898 0.19039892 0.08580156 -0.014598856 -0.11500348 0.124988265 0.3860244 0.08753022 -0.08810229 -0.0014686676 0.18617459 -0.03164443 0.030465305 -0.1967917 -0.029549098 -0.59582454 0.017069694 -0.22927713 -0.00071683235 0.22519295 0.17417486 0.43290612 0.18254085 0.062213253 0.046483766 0.27683768 0.21793221 0.09187792 -0.059640326 0.08719661 -0.07455721 0.089650504 -0.06598399 -0.20121284 -0.061288822 0.15028983 0.04869993 0.26039264 -0.12041642 0.24631453 0.38761583 -0.090879776 0.11292805 5.0369596e-05 -0.08956472 0.09135403 -0.27676386 0.12143315 -0.07751885 0.0077437344 -0.41852233 0.12488731 0.48627335 0.025309484 -0.23369871 -0.054931853 -0.13677745 0.099344656 -0.15073545
FLL -0.03843762 0.14180823 -0.076491304 -0.17000788 0.011419481 -0.037857104 -0.14408618 0.18439521 0.022039087 -0.07411813 0.076902814 0.23091671 0.036520384 -0.098682046 0.054639176 -0.011831183 -0.032661032 -0.15294163 -0.17844199 -0.04053569 -0.16734253 0.074658416 0.07214543 -0.030044788 0.13996689 -0.116083756 -0.120160945 -0.15434827 0.06395798 -0.12006215 -0.05588739 -0.14664868 0.098225705 0.14504914 0.08160792 0.06627727 0.043426067 -0.21586283 -0.13400437 -0.095537655 0.053356428 0.13067213 0.18075423 0.08110074 -0.006600535 -0.103844054 0.114879355 0.35638672 0.08459755 -0.08990359 -0.0053502964 0.17578033 -0.02700431 0.036021348 -0.1799488 -0.031017901 -0.55449736 0.021195961 -0.20608413 -0.0049164547 0.20401333 0.16197726 0.39887848 0.17025483 0.050065465 0.03768793 0.2550039 0.2062933 0.09269965 -0.053813916 0.0876006 -0.062964454 0.08119875 -0.06001013 -0.18995947 -0.060702346 0.14218219 0.043198414 0.2427355 -0.11123541 0.23213364 0.3603135 -0.08604123 0.10907313 0.0020402907 -0.08572315 0.08991213 -0.26011652 0.111834876 -0.068527676 0.008728491 -0.39502904 0.11256123 0.4531114 0.020155966 -0.21965848 -0.051917423 -0.12836802 0.086217545 -0.14020646
LLG -0.03485339 0.14742671 -0.0796777 -0.17823814 0.006923855 -0.043114763 -0.14942811 0.19827335 0.015900644 -0.077274315 0.07141789 0.24469846 0.037078585 -0.10068158 0.059103075 -0.018677182 -0.037409227 -0.1595587 -0.18432689 -0.05076811 -0.17908786 0.08319557 0.07750371 -0.027189879 0.14383756 -0.120843284 -0.13186336 -0.16216125 0.061104763 -0.12335106 -0.05771607 -0.15286157 0.101964444 0.1590877 0.07806377 0.0650226 0.046181872 -0.22668763 -0.13709472 -0.10523685 0.05786101 0.13475782 0.19198298 0.080101795 -0.01070634 -0.110672995 0.12172009 0.3779199 0.0838549 -0.09276211 0.002767363 0.18903261 -0.029103931 0.030478518 -0.1909416 -0.029036287 -0.5809357 0.017263979 -0.22533533 -0.00558222 0.21997342 0.16552188 0.4258068 0.17236985 0.052726485 0.044254158 0.26297882 0.2198656 0.09038984 -0.05328072 0.09112232 -0.070283405 0.08397317 -0.066737086 -0.19598569 -0.062171865 0.14884818 0.046525843 0.25751132 -0.114553176 0.241373 0.3751966 -0.08567814 0.1112496 0.0012933317 -0.085942954 0.09131688 -0.26804107 0.119696796 -0.06975555 0.008617048 -0.4119852 0.12492803 0.47314906 0.017707074 -0.22755522 -0.04748129 -0.13608426 0.08845419 -0.14470878
LLS -0.042828776 0.14854282 -0.072909325 -0.17054065 0.007840332 -0.039326053 -0.14443533 0.18717432 0.016106784 -0.06443246 0.067759715 0.2263787 0.030423263 -0.09239153 0.050523765 -0.016232291 -0.0393112 -0.1439089 -0.1653015 -0.04437819 -0.17041765 0.07629182 0.06726122 -0.021445075 0.13851085 -0.113517016 -0.12664582 -0.15206198 0.053244546 -0.11270344 -0.057615317 -0.14144064 0.09751986 0.14517073 0.07947312 0.069096126 0.045798708 -0.22029349 -0.12530488 -0.10056053 0.050010305 0.12508696 0.17617117 0.077609286 -0.012930583 -0.10573302 0.119630255 0.3485109 0.08089397 -0.08019395 -0.0072925286 0.17460608 -0.025974015 0.033930384 -0.17667618 -0.03252551 -0.54539365 0.017861491 -0.21098453 -0.0047956393 0.19812633 0.16231948 0.39835674 0.16919741 0.046589702 0.03625836 0.2472953 0.20746589 0.08621353 -0.05927253 0.080616124 -0.063916884 0.08485217 -0.055592004 -0.18854204 -0.054414272 0.1414955 0.047880217 0.2408429 -0.10697816 0.22666857 0.35228023 -0.0770378 0.10069482 -0.0002988927 -0.08926455 0.08209412 -0.25577402 0.113231406 -0.062029038 0.004470215 -0.38672325 0.11408961 0.44807756 0.013606819 -0.21092744 -0.04821815 -0.11851985 0.08382908 -0.14269662
LKK -0.042370193 0.16094622 -0.0882162 -0.19082518 0.011383459 -0.045679633 -0.16579877 0.21357381 0.019215517 -0.08184424 0.076086834 0.26213664 0.034556344 -0.109279245 0.06183218 -0.017599419 -0.04519066 -0.16490585 -0.18666713 -0.04971466 -0.18787242 0.08770161 0.085957654 -0.028138576 0.1601415 -0.12858637 -0.13632919 -0.17202447 0.06168364 -0.12968403 -0.060663395 -0.16687572 0.10480134 0.16018368 0.091318734 0.07107029 0.049182232 -0.24375845 -0.14238662 -0.11115778 0.056194924 0.14829756 0.19856088 0.08482477 -0.012401613 -0.12086749 0.13109787 0.39655071 0.08988094 -0.092167325 -0.0010062858 0.1897742 -0.031469654 0.0329707 -0.20749661 -0.030617194 -0.6184343 0.027179103 -0.23679085 -0.0040567755 0.22742637 0.18198372 0.44602215 0.19143097 0.056481678 0.04977752 0.28042975 0.22743024 0.09837039 -0.061805833 0.0993937 -0.08034607 0.08819647 -0.06327628 -0.20818721 -0.07123043 0.15816513 0.04842389 0.2683827 -0.12404088 0.26239073 0.40157208 -0.091340035 0.1172193 -0.0021061464 -0.092121035 0.09747777 -0.29217273 0.12809871 -0.079586014 0.0017414171 -0.43465537 0.1238061 0.506666 0.024640875 -0.24454723 -0.05239074 -0.14399835 0.09335628 -0.15451871
NIL -0.040384963 0.1547775 -0.07605776 -0.16925514 0.010785188 -0.0461598 -0.14985113 0.1934999 0.023687502 -0.073737055 0.06837028 0.24390233 0.038176004 -0.10108578 0.054670155 -0.007628333 -0.03762668 -0.1560567 -0.1812224 -0.041482907 -0.18014787 0.081374414 0.07266967 -0.031104323 0.14932394 -0.11320212 -0.13122632 -0.15801518 0.057504226 -0.12647519 -0.05996161 -0.14862993 0.09801943 0.14853132 0.08076854 0.068667226 0.045239583 -0.22702488 -0.13530724 -0.105174184 0.054594047 0.13639794 0.18974993 0.08286333 -0.008643002 -0.111820094 0.123155 0.36946183 0.07992663 -0.090981424 -0.005220155 0.18473773 -0.026742369 0.033100843 -0.18456145 -0.030797515 -0.57395494 0.01746094 -0.21855836 -0.0051246155 0.21439509 0.17011438 0.41779876 0.17869927 0.05922518 0.045334663 0.26318145 0.21651578 0.09065351 -0.059511498 0.08970223 -0.07020154 0.08072819 -0.06297149 -0.19618419 -0.05937061 0.14682984 0.044650372 0.2552755 -0.115779065 0.2455884 0.36923474 -0.08421838 0.10616472 0.0011331807 -0.08866135 0.09269064 -0.26588586 0.11131553 -0.07070347 -0.0004732542 -0.39905378 0.12462035 0.46807656 0.013794595 -0.2280591 -0.046793126 -0.13090734 0.08963388 -0.14762163
AVY -0.045481596 0.16086254 -0.08733304 -0.18419343 0.0064449715 -0.046556287 -0.15480895 0.20744829 0.019835781 -0.08029253 0.07756546 0.2541396 0.034827594 -0.10119057 0.059410203 -0.012312228 -0.03832155 -0.16808085 -0.18793073 -0.047881242 -0.19045864 0.08097686 0.08498312 -0.026355818 0.15403454 -0.12992652 -0.14139827 -0.1686549 0.0675524 -0.12796481 -0.06523887 -0.15925771 0.1025938 0.15787575 0.08250068 0.07447403 0.05093042 -0.23535052 -0.13662165 -0.1095527 0.06315511 0.14339933 0.19823408 0.08879016 -0.011866541 -0.119892456 0.1318762 0.38939914 0.08817304 -0.09369488 -0.00083861494 0.19347714 -0.030859135 0.036159515 -0.19592904 -0.032848917 -0.60420066 0.024628233 -0.236964 -0.0048343055 0.22770303 0.17588767 0.43559226 0.1879092 0.052431878 0.042763665 0.27603692 0.22464336 0.104860075 -0.0627208 0.09129567 -0.076173276 0.09283745 -0.063163675 -0.21078002 -0.070108004 0.16107747 0.050715134 0.2708638 -0.12552337 0.26111364 0.39839622 -0.09149355 0.11379803 0.0022062107 -0.09660743 0.09360521 -0.28949875 0.1208724 -0.07283518 0.0029246805 -0.4324752 0.12329042 0.4914084 0.017219989 -0.24335404 -0.052735347 -0.13257127 0.090484336 -0.15040751
DGR -0.044895407 0.16940425 -0.08896819 -0.20464264 0.011492967 -0.04774281 -0.17040074 0.21510468 0.021785611 -0.08095386 0.0844807 0.27065974 0.036286164 -0.10918302 0.06656216 -0.019367246 -0.035929002 -0.17955622 -0.1975403 -0.05232992 -0.19453308 0.08795502 0.08988748 -0.027921602 0.16083162 -0.12911606 -0.15074372 -0.17511208 0.06773074 -0.13413824 -0.06465061 -0.17473261 0.117275976 0.17492352 0.08952374 0.081368856 0.051946312 -0.25391027 -0.154333 -0.11122999 0.064487115 0.15235533 0.21365736 0.0986165 -0.010896311 -0.124687634 0.14056742 0.41733396 0.09602583 -0.10238411 -0.00088321086 0.20854327 -0.029839095 0.03971751 -0.22190957 -0.04016274 -0.6481672 0.020590106 -0.24163581 -0.0049048676 0.24030535 0.18582496 0.472412 0.19884332 0.0645196 0.054864123 0.2972132 0.2416975 0.102621555 -0.07193209 0.10064082 -0.07452259 0.09763602 -0.068024814 -0.21977824 -0.07015621 0.16602412 0.05099826 0.2823578 -0.124863654 0.2799741 0.4201857 -0.10178981 0.12703627 -0.007377047 -0.09765845 0.10017502 -0.31027815 0.12960432 -0.075636685 0.0022710834 -0.462602 0.1350614 0.53046006 0.017539345 -0.25934303 -0.058511127 -0.14208823 0.107144885 -0.16455549
KEA -0.040281083 0.15928955 -0.08838473 -0.18707547 0.01342923 -0.050401192 -0.15991609 0.20825008 0.017079255 -0.077367544 0.07851349 0.25854173 0.035811663 -0.10472948 0.05608701 -0.009480654 -0.041536946 -0.16645668 -0.1846988 -0.043536436 -0.18908252 0.08758077 0.08550101 -0.029989481 0.1515699 -0.1219203 -0.1322727 -0.16048588 0.059600327 -0.121660106 -0.06015024 -0.16004273 0.10588619 0.16332054 0.080066405 0.07028165 0.0515594 -0.23380925 -0.14154512 -0.11147691 0.05250403 0.13997084 0.19183604 0.08967084 -0.014087012 -0.11744132 0.13009015 0.3908461 0.09022943 -0.096239515 -0.0068312744 0.19224586 -0.023733359 0.0363675 -0.2012391 -0.036161948 -0.5971203 0.024674533 -0.22669196 -0.004888573 0.22923154 0.17879839 0.43004182 0.18057363 0.054279014 0.042851284 0.27607402 0.22841612 0.0966876 -0.05810888 0.09271683 -0.07268974 0.09280287 -0.063324 -0.20345041 -0.07135956 0.15453169 0.0427039 0.2701739 -0.1239495 0.25249797 0.38991457 -0.093329236 0.11051809 -0.007253493 -0.09319787 0.092196636 -0.28388014 0.11781713 -0.076123 0.006477562 -0.4231738 0.12793052 0.49189353 0.017307045 -0.23563221 -0.052269556 -0.1382645 0.09447738 -0.15715061
AAL -0.034844123 0.15556358 -0.083292186 -0.17447308 0.00964959 -0.04551024 -0.14907914 0.19673678 0.023544597 -0.07007653 0.0797339 0.2416171 0.03106277 -0.09545396 0.054382805 -0.009681155 -0.03335787 -0.1523927 -0.17787637 -0.043727748 -0.17275938 0.080193825 0.082826704 -0.022588883 0.14504814 -0.11292574 -0.13176876 -0.15815395 0.06319453 -0.124589264 -0.0594534 -0.15023535 0.103221215 0.15055986 0.07777468 0.07187421 0.051391795 -0.2320807 -0.13452578 -0.10618131 0.052627183 0.13689388 0.18812414 0.0797361 -0.0067568617 -0.10816817 0.12579004 0.37819296 0.0872964 -0.09148521 0.0032950568 0.1822559 -0.029847363 0.035282485 -0.19167878 -0.03171982 -0.57768446 0.021676451 -0.22032915 -0.00011937384 0.21903951 0.16844507 0.42150941 0.17442316 0.05729642 0.046357572 0.25857958 0.21020779 0.0980422 -0.05602155 0.08891357 -0.07407032 0.08635428 -0.064339936 -0.19406052 -0.06406515 0.15236865 0.049498457 0.2552425 -0.115961805 0.24709779 0.37057722 -0.08999416 0.104781196 -0.008394938 -0.09393056 0.09082033 -0.27400306 0.11218173 -0.07415086 0.00022608983 -0.40598586 0.12649655 0.47283456 0.016723152 -0.23152156 -0.05174778 -0.1332406 0.088264175 -0.15407906
FDT -0.032039206 0.14815125 -0.081521116 -0.17782636 0.015464898 -0.04035741 -0.14923082 0.1978551 0.022780921 -0.070234135 0.076026216 0.24635836 0.034263868 -0.09941368 0.049417086 -0.014574017 -0.031319663 -0.15088421 -0.180466 -0.039735474 -0.17376769 0.07254138 0.08094634 -0.030209977 0.14178115 -0.114957295 -0.12853116 -0.15758565 0.06264474 -0.118009165 -0.058409553 -0.15410867 0.10213309 0.15098505 0.07989719 0.06471256 0.03824986 -0.22184755 -0.12675774 -0.10461023 0.056971572 0.13280421 0.17993677 0.08429696 -0.006741618 -0.110909365 0.12264201 0.37418562 0.085839845 -0.089740105 -0.0018696523 0.18476787 -0.028360426 0.030479113 -0.18613532 -0.034216736 -0.5620288 0.021015733 -0.22030173 0.0019762835 0.20851828 0.16577762 0.41278273 0.17360425 0.05279629 0.047769662 0.26164347 0.20550518 0.09220639 -0.055990472 0.08685136 -0.064803354 0.08108731 -0.06537344 -0.19111978 -0.058003955 0.14720584 0.047178455 0.25002927 -0.116171345 0.24496727 0.37278408 -0.08311292 0.10851444 -0.00048123076 -0.08370581 0.09056971 -0.2623864 0.115999795 -0.06491529 -0.00062068546 -0.3984505 0.123536624 0.46886337 0.014679175 -0.22056584 -0.045155566 -0.12642954 0.08473811 -0.1475724
TAA -0.030074941 0.14456594 -0.07678069 -0.16603488 0.010354897 -0.040563565 -0.1385093 0.17944519 0.016682189 -0.06563818 0.07103259 0.22612238 0.03165281 -0.08925178 0.053974286 -0.011550466 -0.032419633 -0.1393598 -0.17006133 -0.040974043 -0.16578695 0.07772114 0.068461485 -0.025766296 0.13434073 -0.11036674 -0.123491034 -0.15091188 0.056326993 -0.10949337 -0.05419986 -0.14315724 0.09346875 0.1414141 0.074426234 0.060971987 0.046096317 -0.20522831 -0.12462028 -0.09660764 0.052375887 0.120783895 0.16924341 0.076630734 -0.0065988856 -0.09890573 0.109947346 0.34610364 0.07917632 -0.07873191 -0.007894682 0.17084421 -0.018807432 0.03384443 -0.1793366 -0.03287097 -0.5302505 0.017003128 -0.2043766 0.0031986951 0.19253087 0.15257561 0.3851618 0.15912376 0.050030548 0.04076396 0.23876978 0.1938976 0.081937 -0.049285658 0.07944532 -0.061675742 0.07917612 -0.057098553 -0.18511091 -0.062294405 0.13492681 0.043711483 0.2323603 -0.1107434 0.22522935 0.34070602 -0.077090725 0.101679154 -0.005226733 -0.08050873 0.08855356 -0.2524375 0.10938875 -0.068526894 0.0045271446 -0.36903718 0.113738455 0.43201065 0.021314858 -0.20686558 -0.044565134 -0.11970904 0.08245182 -0.13297911
SAA -0.040906653 0.14588489 -0.06819194 -0.1595833 0.009720258 -0.04011903 -0.13666786 0.17519575 0.020317493 -0.0637653 0.066530526 0.226387 0.035075188 -0.09599594 0.048719995 -0.009909678 -0.03240984 -0.14185467 -0.17114241 -0.046146814 -0.16454683 0.079314135 0.071518354 -0.025096748 0.13862848 -0.105763406 -0.11807539 -0.14331286 0.049678523 -0.116711535 -0.059254453 -0.13803491 0.09065179 0.14172514 0.07088858 0.067506984 0.041014645 -0.20776139 -0.121168174 -0.09736248 0.05325303 0.12440185 0.1782825 0.0775846 -0.0049661235 -0.101622745 0.11032017 0.34763896 0.07785161 -0.07799494 0.0006377253 0.17102338 -0.017779948 0.027240884 -0.17726111 -0.024368783 -0.5353542 0.022787767 -0.20610137 0.0026598608 0.20023069 0.1559845 0.38185987 0.16384722 0.048610605 0.04254149 0.24295196 0.20181349 0.090063 -0.05578514 0.08097625 -0.06028379 0.08053487 -0.05447687 -0.18085352 -0.056428358 0.13739787 0.03730324 0.23224768 -0.10228544 0.22658575 0.348949 -0.0823418 0.10488665 -0.003670114 -0.087822706 0.07877847 -0.25504836 0.103956036 -0.06822388 0.0019425949 -0.38064536 0.10938967 0.4419345 0.013349379 -0.21024317 -0.047100596 -0.12544149 0.079914704 -0.13238406
LKD -0.03039568 0.1443577 -0.0799197 -0.160968 0.00918231 -0.039633024 -0.13591881 0.1821944 0.018401993 -0.068837024 0.0689017 0.23241802 0.031320453 -0.08835177 0.047718607 -0.01625176 -0.03178015 -0.15043469 -0.17252113 -0.046824034 -0.16309305 0.07492125 0.07553818 -0.020411951 0.14028409 -0.105702154 -0.12679616 -0.14422461 0.052849445 -0.11455577 -0.05406241 -0.13918753 0.0948248 0.1485969 0.07940004 0.060431186 0.046360426 -0.21721028 -0.12242047 -0.092973836 0.04851463 0.12753476 0.17372909 0.07790191 -0.008353808 -0.10450932 0.11905593 0.34556752 0.080330074 -0.07968988 -0.004452468 0.17224586 -0.020505948 0.030428698 -0.17647935 -0.02618454 -0.5357756 0.020327846 -0.2096633 -0.0024099955 0.19968268 0.15956786 0.3853362 0.16607618 0.054347333 0.041417602 0.24409233 0.2017239 0.08561236 -0.053053904 0.080670536 -0.064571716 0.078770764 -0.05979063 -0.1806236 -0.056748066 0.13871935 0.042685725 0.242515 -0.11134881 0.23204668 0.35081792 -0.08372612 0.10522952 0.0011461183 -0.08746543 0.08425424 -0.25704977 0.10487815 -0.06973548 0.0051041134 -0.385204 0.11321866 0.43829188 0.011312843 -0.20948 -0.050757203 -0.1236299 0.084142916 -0.13601588
LGL -0.036758605 0.13334306 -0.06281593 -0.15130468 0.0048361556 -0.03915045 -0.13225785 0.16327353 0.021058118 -0.060075104 0.060343515 0.2090458 0.024528833 -0.090281926 0.05167277 -0.011203145 -0.03160856 -0.1349151 -0.15225089 -0.037209522 -0.14945935 0.07368078 0.072741956 -0.018194491 0.121976644 -0.102138616 -0.11233213 -0.13172609 0.05498705 -0.105548404 -0.048973262 -0.12996702 0.09036698 0.12884934 0.07527196 0.061097212 0.042732783 -0.19362263 -0.11348543 -0.0915758 0.04671322 0.11836381 0.16348413 0.07261262 -0.0052451636 -0.093124434 0.10723668 0.31852186 0.069996275 -0.080143414 -0.0028290404 0.16017687 -0.021889258 0.033050615 -0.16595761 -0.02893581 -0.4968691 0.016931415 -0.1911517 -0.0065228874 0.182877 0.14255257 0.35653156 0.15171798 0.04990112 0.037733536 0.22808306 0.1824847 0.0773967 -0.04784874 0.07613215 -0.055574562 0.07327269 -0.057870846 -0.16531034 -0.057314683 0.13061708 0.0387674 0.22244856 -0.10104751 0.210134 0.31849468 -0.076227695 0.09841714 -0.0037918256 -0.07470232 0.07225787 -0.22896962 0.096002504 -0.06390628 0.0019719915 -0.35003594 0.10333025 0.4098303 0.014976047 -0.19169834 -0.047114678 -0.11458757 0.07503547 -0.12323768
KAL -0.03402639 0.13976595 -0.07117194 -0.16218656 0.0135846045 -0.04407452 -0.13657495 0.17804562 0.012838426 -0.06566462 0.06552682 0.21859498 0.03204938 -0.09309655 0.05497861 -0.011942478 -0.036782105 -0.13880062 -0.1642483 -0.042799935 -0.16792993 0.07336252 0.06702258 -0.022242557 0.13168716 -0.111983575 -0.12244053 -0.14126289 0.05889056 -0.10728353 -0.048567723 -0.14124389 0.090410344 0.14188923 0.07896048 0.062611565 0.03954743 -0.21400718 -0.1230191 -0.090470806 0.050961167 0.11930828 0.16887285 0.07415291 -0.0029716196 -0.09743518 0.113023736 0.34738505 0.08107631 -0.07794904 -0.007564218 0.16625836 -0.020438025 0.033133257 -0.1785474 -0.02832286 -0.5215031 0.02452864 -0.20349951 -0.0039677857 0.19322072 0.15454426 0.37938985 0.1557037 0.04962213 0.04331382 0.24012439 0.19551064 0.08313834 -0.057347458 0.07552922 -0.064444065 0.07352725 -0.053197592 -0.1754543 -0.061274067 0.13651739 0.041294586 0.22989503 -0.10870403 0.22290885 0.3388861 -0.074457005 0.09651336 0.0013523365 -0.0884752 0.081294335 -0.24465808 0.103239276 -0.06079967 0.0055795023 -0.37522268 0.1089465 0.43338323 0.014476568 -0.2109969 -0.04841013 -0.1255869 0.0864028 -0.13509645
AYL -0.030973664 0.13959527 -0.07531376 -0.16314581 0.0133902 -0.04405299 -0.13819636 0.18215632 0.016556744 -0.07085694 0.07089801 0.2258628 0.026627671 -0.09582715 0.056457855 -0.01123192 -0.029879255 -0.15119222 -0.1667143 -0.03887651 -0.16254254 0.0798333 0.06945894 -0.021066915 0.13248967 -0.10960435 -0.12588212 -0.14926504 0.058287974 -0.11781342 -0.060583163 -0.14397013 0.09768919 0.14476448 0.07649557 0.068467654 0.044651467 -0.21589087 -0.1289159 -0.09177324 0.05387884 0.1311742 0.1714641 0.08303762 -0.010977564 -0.109073155 0.12212827 0.35179338 0.079776555 -0.08541437 -0.0063020578 0.16914518 -0.019268153 0.030352635 -0.18520759 -0.0315378 -0.536354 0.02193247 -0.20060459 -0.0016127832 0.20601103 0.16343763 0.39080504 0.16265725 0.05164322 0.040232755 0.2508323 0.20596834 0.08292665 -0.05125043 0.077527374 -0.0668814 0.07967118 -0.054644663 -0.18104707 -0.059058934 0.14017272 0.041680403 0.24229668 -0.108775765 0.23197901 0.35023248 -0.080401525 0.09897575 -0.007033641 -0.08922479 0.08238662 -0.25212032 0.112219766 -0.07025354 0.0018482419 -0.38330367 0.11005782 0.43959853 0.022624543 -0.2119207 -0.050834905 -0.12702714 0.08788342 -0.13940364
LTE -0.038435858 0.14692672 -0.0735183 -0.17341976 0.009122776 -0.038670532 -0.1398876 0.18540016 0.021944582 -0.06735804 0.065645576 0.2358172 0.0355269 -0.097602904 0.05269545 -0.00999477 -0.035922937 -0.1466446 -0.17555152 -0.04470823 -0.16431202 0.081401385 0.07724228 -0.021943225 0.13905819 -0.11592965 -0.12164991 -0.15550831 0.060404733 -0.11452749 -0.060696892 -0.1475352 0.09596091 0.1486075 0.07635545 0.071212076 0.045292284 -0.21150059 -0.12359905 -0.098793335 0.05589177 0.12958184 0.17459561 0.08063445 -0.0070404224 -0.11207736 0.12300442 0.35953006 0.076914705 -0.0823709 -0.0028389394 0.17766055 -0.021837918 0.029394845 -0.18784888 -0.031668037 -0.5469845 0.0243502 -0.2135708 0.0028622686 0.20763215 0.16051611 0.39611468 0.16122471 0.05470547 0.043276045 0.25644046 0.20810796 0.092514955 -0.058256466 0.08228514 -0.071155004 0.07657986 -0.058635734 -0.19180769 -0.05872363 0.14662929 0.039660834 0.24706343 -0.11213444 0.23066294 0.35838982 -0.08472724 0.10823394 -0.0061078095 -0.08853322 0.08277064 -0.2561577 0.11327659 -0.06534225 0.0039347685 -0.388262 0.116553 0.4454372 0.019502971 -0.2170373 -0.044435877 -0.12296077 0.087137565 -0.13918176
ELE -0.03125053 0.14238617 -0.07736025 -0.16208541 0.007784086 -0.04198131 -0.13402097 0.18062267 0.02074849 -0.06622265 0.06917444 0.22367565 0.030783368 -0.09514519 0.05402752 -0.013140949 -0.030077985 -0.14464831 -0.16058734 -0.043757167 -0.16095005 0.07169115 0.07229957 -0.018767815 0.136597 -0.104699075 -0.11675669 -0.14414749 0.050413914 -0.113352 -0.057984486 -0.13640335 0.08950545 0.14169331 0.07419239 0.06491752 0.036491383 -0.20546672 -0.11728734 -0.09796574 0.053722765 0.124429315 0.16940811 0.07532711 -0.0034334841 -0.101596385 0.11219819 0.3391844 0.07901871 -0.0840126 -0.00082792685 0.16763422 -0.018512169 0.02670763 -0.1811141 -0.02604686 -0.5211153 0.024993747 -0.19802903 -8.2219194e-05 0.19550465 0.15810855 0.38292497 0.15604301 0.049673326 0.03850718 0.24242988 0.20210014 0.08204258 -0.054778237 0.077016495 -0.06260628 0.07582594 -0.053045146 -0.18018688 -0.059987932 0.13882364 0.044907805 0.23553465 -0.10464664 0.22367802 0.3412581 -0.07802752 0.10150087 -0.007460791 -0.08353101 0.08774134 -0.2545353 0.10673028 -0.06392951 0.0012627352 -0.37613165 0.11301021 0.43647322 0.0129566975 -0.20623885 -0.045730677 -0.120241635 0.07737611 -0.13807385
KTA -0.030385535 0.14703932 -0.07643225 -0.16606618 0.005733158 -0.039943684 -0.14240235 0.18219358 0.018506303 -0.06911282 0.07485501 0.22945887 0.033753335 -0.09676872 0.05037041 -0.01564744 -0.0396279 -0.15004538 -0.16915953 -0.043670114 -0.16826887 0.07278813 0.07268074 -0.025345767 0.13717511 -0.11431088 -0.12503375 -0.15324962 0.0546453 -0.11863547 -0.05517076 -0.1481986 0.09933328 0.14448066 0.07663322 0.06538124 0.046742473 -0.21243654 -0.121949255 -0.09313877 0.052876335 0.12923913 0.17605644 0.080812864 -0.01156927 -0.10630978 0.113480054 0.35433093 0.07586598 -0.089248344 -0.0027768614 0.17249879 -0.021040285 0.027509252 -0.17726058 -0.029705754 -0.54130477 0.020624505 -0.21102601 0.0038670753 0.2076889 0.16086547 0.39553198 0.16817838 0.048572563 0.04204076 0.25530916 0.19867373 0.09443166 -0.060126662 0.084459014 -0.07178941 0.08199083 -0.06081941 -0.18762605 -0.056549173 0.14103879 0.046462383 0.24537455 -0.11260733 0.23197661 0.34872606 -0.08591854 0.102081105 -0.0016324812 -0.080526955 0.08627708 -0.25619498 0.11193112 -0.06626119 0.0028802166 -0.3802678 0.11314899 0.4470156 0.022982532 -0.21370749 -0.051279206 -0.1291639 0.084119216 -0.14375448
AVA -0.040617615 0.14743906 -0.08017251 -0.17235231 0.010450944 -0.041308746 -0.14262445 0.18920001 0.022640169 -0.07049891 0.0775074 0.22864562 0.02847498 -0.09079478 0.05550088 -0.015271468 -0.032442234 -0.14437251 -0.17193301 -0.044644374 -0.16826312 0.08147587 0.07344131 -0.029155908 0.14161684 -0.114191964 -0.12946892 -0.15644108 0.06295836 -0.114646964 -0.05550463 -0.14629205 0.09716536 0.14155778 0.07683175 0.062563166 0.04037724 -0.21558258 -0.13018379 -0.09376239 0.054369055 0.13185944 0.18182313 0.08115383 -0.0054107886 -0.10452554 0.11855292 0.35576513 0.085073456 -0.08951425 -0.0011011618 0.17533031 -0.024038712 0.034865774 -0.17959775 -0.027443897 -0.5481763 0.024960741 -0.20763354 -0.0055836122 0.20944312 0.16325621 0.39901045 0.16720644 0.056806743 0.04245537 0.25397998 0.20234253 0.09235549 -0.05199058 0.08199532 -0.07222681 0.082651556 -0.057621766 -0.19212753 -0.057933588 0.14707124 0.03795891 0.24204892 -0.10509498 0.2352544 0.3597282 -0.081394464 0.10703293 -0.006507523 -0.08319121 0.08515117 -0.26115552 0.10554122 -0.067825556 0.003826387 -0.38360468 0.11601221 0.45401648 0.019809304 -0.21604957 -0.045608878 -0.11898002 0.08344877 -0.14058569
VEK -0.04004511 0.14568956 -0.07109138 -0.16457894 0.0146515705 -0.04076751 -0.13422637 0.17578311 0.021249404 -0.07202323 0.071106434 0.2198203 0.032995116 -0.09375622 0.046527937 -0.013751234 -0.030661486 -0.14949277 -0.1663006 -0.03908574 -0.16135876 0.07765431 0.07330396 -0.01823994 0.13813168 -0.11138512 -0.12355771 -0.14500834 0.051464945 -0.11556257 -0.053382263 -0.13975243 0.096807644 0.13974911 0.077658236 0.06790944 0.04744346 -0.21375255 -0.12067982 -0.09374035 0.05482457 0.12620957 0.17445907 0.08030486 -0.006273796 -0.10643614 0.110074565 0.3498293 0.07884388 -0.086690076 -0.0055477056 0.16451783 -0.027158545 0.030007832 -0.18219443 -0.031613816 -0.52758473 0.022254117 -0.20734718 0.002326467 0.20251985 0.15705621 0.3853149 0.1667895 0.05430883 0.033673476 0.24694599 0.19567543 0.084421344 -0.05771529 0.083318524 -0.06748811 0.07712706 -0.054096166 -0.17754304 -0.058957364 0.13661978 0.04142603 0.23559459 -0.1075948 0.22569016 0.35060173 -0.084361136 0.096601374 0.00159305 -0.08069633 0.07923964 -0.25424272 0.10666946 -0.062497493 -0.0005148184 -0.37102884 0.11326305 0.43701836 0.0150434 -0.21119355 -0.04720248 -0.12638322 0.08506729 -0.1305594
GGL -0.02818483 0.118936494 -0.06685239 -0.14728154 0.0061092367 -0.036250725 -0.12342234 0.15318003 0.010696371 -0.05483212 0.06077073 0.19165988 0.031265344 -0.08242982 0.04201702 -0.011049683 -0.028120087 -0.12486426 -0.14816965 -0.035844438 -0.14828761 0.06313717 0.061386783 -0.022283271 0.1220937 -0.0985753 -0.10671625 -0.13044849 0.052014954 -0.09411091 -0.04896363 -0.118744634 0.08540563 0.12599123 0.060469717 0.055503495 0.03666111 -0.1859797 -0.10426767 -0.08420633 0.041907407 0.10941586 0.15653764 0.06865324 -0.008300512 -0.08559951 0.10375156 0.3028539 0.07373652 -0.074075274 0.003764551 0.14943977 -0.024865713 0.029664963 -0.15364149 -0.02388528 -0.4647848 0.023204787 -0.17489019 0.0035187562 0.17606753 0.13068214 0.3411488 0.14442751 0.04420344 0.038325656 0.21112747 0.17535244 0.07066678 -0.05069105 0.070732675 -0.05222117 0.074015886 -0.05345581 -0.1637307 -0.04775402 0.11722884 0.034355287 0.21004541 -0.09474378 0.19798593 0.30043533 -0.066525355 0.08721225 0.0010507369 -0.07469363 0.07440165 -0.21478224 0.09148047 -0.05247907 0.0041449093 -0.32862374 0.0972946 0.37545574 0.01479369 -0.18545243 -0.03894178 -0.10782512 0.07385982 -0.118662156
TEE -0.035421755 0.13619031 -0.07166254 -0.15462194 0.009639656 -0.040295035 -0.1328966 0.16858621 0.018513294 -0.06255876 0.06064042 0.22066768 0.035156235 -0.085440196 0.04984879 -0.015066339 -0.029802676 -0.1390097 -0.16262299 -0.035329156 -0.15325491 0.071140856 0.06512838 -0.02450879 0.1292919 -0.10645803 -0.117959104 -0.14366618 0.057862684 -0.11313381 -0.05582043 -0.13916124 0.09180584 0.14025342 0.06754517 0.06329195 0.042623363 -0.20243911 -0.11752104 -0.089557625 0.04896218 0.11642895 0.16796553 0.071130276 -0.0038391768 -0.09703464 0.11013746 0.33548868 0.07596691 -0.081416726 0.0013944649 0.16028273 -0.022885794 0.02740426 -0.17136426 -0.029788256 -0.5094611 0.016365193 -0.19657199 -0.0054621007 0.19553612 0.14742798 0.37461132 0.15269518 0.051484328 0.04128659 0.22804789 0.19320564 0.078590974 -0.05365317 0.074700855 -0.06419351 0.07212095 -0.050957415 -0.16830556 -0.05609439 0.12537558 0.03381866 0.2284676 -0.107063666 0.21600954 0.33416274 -0.07191229 0.09912956 -0.0062899557 -0.08046549 0.07524029 -0.24092902 0.09832258 -0.057360332 -0.00038018066 -0.36288285 0.10863242 0.4179554 0.012643274 -0.19871928 -0.04398506 -0.11865018 0.07661608 -0.13181458
LYS -0.03168793 0.1305951 -0.073671766 -0.1530295 0.0051090843 -0.037691075 -0.13142198 0.17484623 0.022851182 -0.069471106 0.066450216 0.20926683 0.033944618 -0.0887752 0.05198209 -0.015097733 -0.035977207 -0.14070131 -0.15628298 -0.04351545 -0.16094054 0.07241388 0.068843275 -0.018142678 0.1254439 -0.10382822 -0.11455909 -0.13976766 0.048368976 -0.10255275 -0.056523517 -0.13022606 0.09392538 0.1368815 0.07668964 0.06056953 0.0359147 -0.20616707 -0.11803527 -0.0866166 0.04408998 0.11996312 0.16115198 0.070839725 -0.002490313 -0.09660345 0.10506407 0.3322906 0.073569536 -0.07698068 -0.0066440403 0.16438296 -0.021731453 0.03523152 -0.17337707 -0.027638732 -0.5073214 0.016960353 -0.19211015 0.0013788354 0.18620545 0.15172653 0.3708139 0.15882699 0.0526847 0.036569484 0.23334914 0.18768764 0.07835739 -0.050908834 0.08285329 -0.063809015 0.07067107 -0.054968487 -0.16983546 -0.055523865 0.12598029 0.040194012 0.2229348 -0.10249564 0.21612237 0.3279119 -0.07410497 0.09465937 -0.004856082 -0.08325841 0.08100222 -0.24291345 0.10794137 -0.06436685 0.0053228876 -0.35326308 0.10877507 0.4149259 0.012651953 -0.19687581 -0.043498147 -0.11347397 0.081449956 -0.12795508
DLR -0.030823516 0.12745517 -0.060609274 -0.14526357 0.010934902 -0.04017949 -0.12396546 0.15987559 0.01750315 -0.059331566 0.05679379 0.20213795 0.03062175 -0.07686723 0.041927036 -0.009739765 -0.025339162 -0.12418458 -0.14863773 -0.04172634 -0.148544 0.06656999 0.06872195 -0.024040865 0.119753174 -0.094686195 -0.10533826 -0.1310589 0.049238704 -0.10604504 -0.049067218 -0.12730512 0.08760598 0.12473749 0.071253695 0.054900885 0.042005446 -0.18636246 -0.10635276 -0.079634525 0.042982467 0.10716784 0.14877318 0.064842045 -0.0027910722 -0.09569092 0.09855935 0.31297505 0.06843543 -0.07768125 -0.00784848 0.14729828 -0.020992054 0.033123437 -0.16032586 -0.02761904 -0.4735379 0.016658904 -0.18663585 -0.0057217623 0.1830128 0.13787602 0.33953717 0.14754847 0.04491748 0.03209969 0.21467322 0.1715307 0.07265133 -0.05136946 0.07751262 -0.059321087 0.07113044 -0.054679446 -0.16825008 -0.05065508 0.1260935 0.034260098 0.21560945 -0.097708635 0.19994764 0.30460033 -0.06890832 0.08937238 -0.0030968129 -0.07854544 0.07639844 -0.21947362 0.10021113 -0.056124926 0.0018199644 -0.3303055 0.103860416 0.38732433 0.013144038 -0.18371455 -0.04127947 -0.104768425 0.07965626 -0.12533285
KAV -0.038787313 0.14475486 -0.07847152 -0.17158689 0.009062306 -0.043080337 -0.1401828 0.18384416 0.017879546 -0.064658836 0.07190033 0.22591726 0.030287754 -0.08801791 0.054472398 -0.012837072 -0.04084002 -0.15025397 -0.17159574 -0.042797897 -0.16789553 0.07813933 0.075744174 -0.020356242 0.14166407 -0.10924146 -0.11909894 -0.1555732 0.054676164 -0.11853114 -0.059485774 -0.13843545 0.09836968 0.14475115 0.07559758 0.06881166 0.047307033 -0.21965726 -0.12263549 -0.0955635 0.05547192 0.13312967 0.17061414 0.08122156 -0.011891404 -0.10354332 0.11722019 0.35489127 0.08471194 -0.08545889 -0.006545574 0.16854936 -0.02197232 0.030583864 -0.1775431 -0.032352485 -0.54525113 0.023130482 -0.20376308 0.001984363 0.19853418 0.15622355 0.3964512 0.16534841 0.04992465 0.040422164 0.25035265 0.20426363 0.088994816 -0.056731768 0.08022397 -0.06888195 0.083602324 -0.06188745 -0.18622626 -0.058784157 0.1425661 0.042471085 0.2372841 -0.1049095 0.22628303 0.34871855 -0.07842178 0.105285466 -0.008778989 -0.087078914 0.08955852 -0.2561928 0.107178465 -0.072247766 -0.002217218 -0.3871668 0.10826299 0.44390097 0.015619945 -0.21674275 -0.045929525 -0.12328547 0.088530704 -0.14295514
ALE -0.03242332 0.1372838 -0.07322608 -0.16590197 0.004840308 -0.03446713 -0.13519442 0.18188024 0.014774829 -0.06465843 0.06430604 0.21856228 0.031843726 -0.08878804 0.045171957 -0.008020818 -0.03447143 -0.14444588 -0.16441661 -0.044063095 -0.16395709 0.07404269 0.07319921 -0.01864136 0.13524602 -0.1059062 -0.12162805 -0.14948942 0.05824463 -0.10897795 -0.054999433 -0.14378925 0.09154415 0.14090744 0.08042673 0.060144335 0.038265236 -0.2107037 -0.12488089 -0.09904809 0.04619746 0.12695533 0.16718334 0.07959331 -0.008455461 -0.10144994 0.11161839 0.34131297 0.07829162 -0.08480607 -0.0041838004 0.1718262 -0.025730552 0.030082839 -0.17501336 -0.02699127 -0.52723855 0.02500935 -0.19600916 0.0031641936 0.19285151 0.152489 0.3816673 0.1647253 0.046238158 0.035953596 0.24471208 0.20099136 0.08912858 -0.053442433 0.07804549 -0.06773865 0.07658723 -0.051615566 -0.17728609 -0.05250992 0.13259159 0.046178356 0.23687306 -0.100424 0.22038962 0.3470077 -0.08267397 0.10587803 -0.0022317728 -0.08582589 0.08483302 -0.25337565 0.110894985 -0.066359565 -0.00018195006 -0.3781368 0.10903026 0.43011072 0.016325293 -0.21311885 -0.04344603 -0.12482653 0.07859102 -0.12971649
LLI -0.04217198 0.14483812 -0.08239348 -0.17045204 0.014698411 -0.039154317 -0.14852591 0.19517599 0.021011671 -0.07672085 0.07134844 0.2455467 0.029390292 -0.101941824 0.055944912 -0.010116615 -0.038715843 -0.15029351 -0.18258575 -0.044686683 -0.17336752 0.0803098 0.07773889 -0.02422057 0.1420598 -0.11313765 -0.13203457 -0.16238447 0.059321757 -0.11823106 -0.055525962 -0.14947829 0.096340135 0.151866 0.077667736 0.07019473 0.043869417 -0.22831307 -0.13617404 -0.09591394 0.057320204 0.13089897 0.18564177 0.08053238 -0.011102295 -0.10872178 0.12340874 0.37757102 0.083976015 -0.089542545 -0.004033857 0.18565793 -0.02325042 0.029098757 -0.1957272 -0.02839123 -0.5745877 0.024133483 -0.22030985 0.0021113306 0.21735366 0.17154337 0.40986937 0.17695351 0.054943886 0.048520442 0.266843 0.21711482 0.09010066 -0.05299557 0.08582804 -0.0650783 0.07881151 -0.056675866 -0.20129201 -0.06505586 0.14493114 0.045722015 0.25335583 -0.112215556 0.24286298 0.3714848 -0.08662581 0.104020335 -0.001432292 -0.0925018 0.08846279 -0.27011132 0.1143657 -0.0653517 -0.0015931862 -0.40259498 0.11486833 0.47226903 0.020211644 -0.22497985 -0.05513223 -0.13070133 0.091444306 -0.15110555
IGL -0.033780303 0.14962484 -0.078881584 -0.16556942 0.012841919 -0.041674215 -0.14443892 0.18078393 0.016545221 -0.073020704 0.06930395 0.22675145 0.032166827 -0.09402216 0.047829993 -0.011869431 -0.037145097 -0.15065295 -0.16929965 -0.045178097 -0.16482419 0.072128184 0.07311296 -0.029510846 0.1364218 -0.10790012 -0.12314313 -0.14964823 0.05801938 -0.119171076 -0.060578097 -0.14452256 0.09229876 0.14413816 0.08187195 0.060700685 0.047030203 -0.21271525 -0.130878 -0.10105979 0.057765543 0.124661595 0.17735773 0.08237825 -0.0043549817 -0.10908692 0.12149171 0.35571542 0.081444524 -0.083499685 0.0009371604 0.17711858 -0.023168663 0.033598002 -0.18646696 -0.030841062 -0.54636663 0.017015042 -0.2089597 -0.0020319014 0.20607072 0.1607741 0.3946434 0.1686423 0.047790702 0.04716309 0.25358355 0.20364603 0.09257002 -0.055709958 0.081056 -0.06936849 0.0772149 -0.058702074 -0.18731855 -0.06265386 0.14030164 0.041489474 0.24703284 -0.10545226 0.2316116 0.3544572 -0.08022943 0.09801269 -0.0018544333 -0.080455616 0.08397183 -0.2548787 0.111058176 -0.071589276 -0.0020541146 -0.3854665 0.11747092 0.45193574 0.016471552 -0.21734959 -0.044624906 -0.12479256 0.081628755 -0.14404407
VKN -0.038461328 0.15406656 -0.07808423 -0.17760664 0.014047744 -0.04088502 -0.14582257 0.19261083 0.016743746 -0.07283598 0.072682165 0.24419947 0.03804454 -0.10093932 0.05096163 -0.017977562 -0.042695627 -0.15813202 -0.18279746 -0.04933137 -0.18243884 0.078655675 0.08002752 -0.022255603 0.14520516 -0.11677654 -0.13407043 -0.15759869 0.06380021 -0.12369153 -0.05862475 -0.15846482 0.105802454 0.1496359 0.08812674 0.06828298 0.04627382 -0.22718449 -0.12925681 -0.10367638 0.055979323 0.13239199 0.189559 0.08496996 -0.003907839 -0.11694395 0.12603298 0.3715976 0.09023301 -0.093697645 -0.002729194 0.18286496 -0.02179566 0.03625954 -0.19716999 -0.038045406 -0.58346146 0.024208818 -0.21759471 0.001474358 0.22144903 0.1734201 0.41581076 0.17167057 0.05092541 0.04192115 0.2629818 0.2163408 0.09274569 -0.05911692 0.08598089 -0.07439012 0.08763338 -0.061542146 -0.2007095 -0.06901194 0.1524954 0.046757028 0.2522888 -0.11507877 0.25070354 0.37266812 -0.091278255 0.108180165 0.00015912025 -0.095354125 0.09240993 -0.27494416 0.113803394 -0.069237486 0.0027170863 -0.40405285 0.118609324 0.47391665 0.019784503 -0.23008049 -0.053438153 -0.12827384 0.093190484 -0.14638762
LGG -0.034719102 0.14536501 -0.07709278 -0.16461545 0.007234213 -0.03848801 -0.13819842 0.18696317 0.015520832 -0.07295522 0.06680639 0.23658536 0.030444203 -0.09026208 0.04940973 -0.0153210275 -0.03809408 -0.14708732 -0.17287101 -0.03803506 -0.17035429 0.07307689 0.07369525 -0.029111465 0.13581584 -0.108308874 -0.11961837 -0.1505074 0.0612668 -0.110111326 -0.05537621 -0.14848165 0.09481528 0.14175372 0.0807816 0.06563058 0.03936701 -0.21697463 -0.1216605 -0.095550925 0.057310835 0.12535621 0.17901343 0.077001415 -0.01073716 -0.10409012 0.11720167 0.35190836 0.08427044 -0.09061351 -0.006863324 0.17593536 -0.018682754 0.02977779 -0.17794995 -0.026270894 -0.54867536 0.02001882 -0.20780839 0.0012308311 0.20454794 0.15927729 0.3979653 0.16649333 0.051468413 0.03950458 0.24720767 0.20112298 0.08546199 -0.05987583 0.087753735 -0.06418396 0.07580318 -0.053371284 -0.19055197 -0.05794017 0.14045884 0.04278392 0.2444387 -0.10830223 0.23562793 0.35076648 -0.081270486 0.10903716 0.00059637974 -0.0788879 0.089768946 -0.25777224 0.114544585 -0.072070464 0.007072591 -0.378358 0.1182153 0.44599158 0.013090349 -0.21663034 -0.050422322 -0.1263933 0.08930349 -0.14023463
NVL -0.039093718 0.13422747 -0.067061685 -0.15496466 0.0045970674 -0.038134534 -0.12970614 0.17476307 0.014805661 -0.06490729 0.06306914 0.21976064 0.035156917 -0.089056425 0.046559792 -0.0074059977 -0.029147401 -0.14564443 -0.16342911 -0.04065992 -0.15827288 0.07081061 0.071790524 -0.029074151 0.1360531 -0.10834046 -0.119382374 -0.1394215 0.05498882 -0.11206747 -0.055730544 -0.13505015 0.091593094 0.13774633 0.07866151 0.06430047 0.043257553 -0.20025803 -0.124217145 -0.09019685 0.054835796 0.11825997 0.16694419 0.07666947 -0.008111101 -0.095869765 0.11621785 0.33914885 0.07406904 -0.081722654 0.0032322945 0.16051307 -0.026695598 0.033177607 -0.17636237 -0.025880525 -0.51875675 0.018942561 -0.19992958 -0.0006858839 0.19627556 0.15320337 0.37780404 0.15563467 0.045423653 0.0398907 0.23552366 0.19678234 0.08434113 -0.051762447 0.080643475 -0.0612818 0.075725205 -0.052716304 -0.17551246 -0.061071314 0.13368279 0.046697404 0.23290412 -0.10069391 0.22631171 0.34005508 -0.07808341 0.103374645 0.0016804584 -0.081465 0.07896807 -0.25019622 0.109118916 -0.06797634 0.007062181 -0.36738703 0.11179551 0.42025864 0.01651546 -0.20356454 -0.044825606 -0.123333745 0.083869815 -0.13202418
TAG -0.036389824 0.14097047 -0.0654678 -0.15543148 0.014412866 -0.03873301 -0.13718015 0.17332128 0.021392807 -0.06364502 0.062361963 0.21371807 0.025607571 -0.089214034 0.052024815 -0.013223348 -0.038766947 -0.14040284 -0.15780675 -0.042029757 -0.15945153 0.06868579 0.06502101 -0.022688137 0.13078254 -0.10187947 -0.12150404 -0.14142495 0.05284693 -0.10808551 -0.05230618 -0.13888805 0.08813167 0.1391447 0.0788854 0.066642605 0.044181257 -0.20763965 -0.12260497 -0.08801491 0.051248148 0.12422466 0.16225237 0.07531133 -0.0055572838 -0.09698856 0.114885 0.33447132 0.07656069 -0.08425381 -0.007888208 0.16481926 -0.022825569 0.032505114 -0.17087817 -0.028697213 -0.5137796 0.015561198 -0.19081798 0.0033855303 0.19019866 0.15101975 0.36935863 0.16062973 0.05403106 0.035698388 0.24099477 0.19069095 0.08795463 -0.04892849 0.07590583 -0.0643809 0.080342025 -0.056323197 -0.1825248 -0.055017784 0.13410538 0.044364024 0.22419861 -0.10191815 0.21879818 0.33036137 -0.07969291 0.10324842 0.0007098753 -0.07777304 0.07533632 -0.24165575 0.10071471 -0.05942889 -0.0013782439 -0.36570296 0.103813455 0.42909667 0.016134275 -0.20602252 -0.045727044 -0.12241513 0.07757515 -0.12801653
GTG -0.034940924 0.14760791 -0.073555455 -0.17761134 0.01056507 -0.045516785 -0.14352642 0.19151159 0.014408569 -0.0762239 0.0735902 0.2383812 0.03504312 -0.098898925 0.05112796 -0.013582045 -0.041709818 -0.15311222 -0.18012832 -0.049679145 -0.17899682 0.08148573 0.07972473 -0.029133135 0.1486021 -0.12028505 -0.13106136 -0.15085681 0.06180328 -0.12414552 -0.05932655 -0.15501924 0.10359858 0.14495195 0.077020474 0.064016536 0.04510927 -0.22379349 -0.13280189 -0.10425331 0.05079928 0.13906723 0.17919111 0.08219656 -0.009989729 -0.11070871 0.124545604 0.37082392 0.08371962 -0.09090054 0.0022747733 0.18032528 -0.022568397 0.037377477 -0.18699902 -0.03448112 -0.56643456 0.020845711 -0.21543607 0.0035419306 0.21694806 0.16977037 0.4108242 0.175825 0.056111425 0.04402953 0.25721863 0.21520615 0.0975205 -0.056576893 0.08421922 -0.068065494 0.08749507 -0.062451337 -0.19640253 -0.06531964 0.14648472 0.04896202 0.2538283 -0.113280766 0.2400676 0.36990273 -0.0890729 0.10723649 -0.0054499796 -0.0910078 0.08651865 -0.27026778 0.11054261 -0.07341053 0.0070168925 -0.40395775 0.11646414 0.46345577 0.019468712 -0.2236702 -0.04947963 -0.13531132 0.0851717 -0.1445899
GLS -0.02942477 0.13592838 -0.074335225 -0.16279587 0.006469251 -0.04007017 -0.1393618 0.17542288 0.01845496 -0.0717399 0.06917757 0.22117193 0.031457692 -0.092520535 0.052577324 -0.016874723 -0.036754962 -0.13845971 -0.15787826 -0.04199522 -0.16477449 0.07093405 0.07485278 -0.019667482 0.12802327 -0.106851764 -0.119767055 -0.14267589 0.052518778 -0.10633143 -0.052430715 -0.14217344 0.09674084 0.13206944 0.07405431 0.06679043 0.0424927 -0.20288865 -0.11789384 -0.09696277 0.04619583 0.12530026 0.16975291 0.077440865 -0.0127103 -0.10263533 0.11777827 0.34089833 0.08078186 -0.08362781 -0.0016423442 0.15985557 -0.02606959 0.032938488 -0.17031449 -0.03032456 -0.5165386 0.01749138 -0.20176671 0.0039241174 0.19645178 0.15532905 0.37377334 0.1583739 0.04736343 0.03415238 0.23881277 0.19351877 0.08081216 -0.050857265 0.07711412 -0.062340334 0.08124161 -0.05136613 -0.17441243 -0.05511064 0.13385122 0.035236485 0.22439937 -0.100346945 0.21734992 0.34224886 -0.08194308 0.09505959 0.0021364137 -0.085852295 0.08460448 -0.24945328 0.10430606 -0.063894 0.007657177 -0.3624217 0.10922132 0.42274827 0.020547066 -0.20356646 -0.043752525 -0.11681493 0.078426406 -0.13369769
TAD -0.035396922 0.15355588 -0.08006265 -0.18941249 0.012771364 -0.04473116 -0.15336075 0.19955558 0.020738224 -0.07741665 0.078183495 0.25669068 0.036103256 -0.10471252 0.055875562 -0.010869271 -0.04022934 -0.16122171 -0.18311329 -0.044662394 -0.18114494 0.0874949 0.08021197 -0.023064535 0.15555608 -0.124759294 -0.1342484 -0.16098557 0.06673859 -0.12540655 -0.06434862 -0.15562113 0.10233493 0.15498398 0.08314796 0.073529154 0.044104226 -0.23406975 -0.13633087 -0.108862504 0.060722053 0.14738609 0.19526392 0.08384509 -0.012725098 -0.11637439 0.12987272 0.39295653 0.09402502 -0.09711158 -0.00044482865 0.18996283 -0.029970085 0.035061177 -0.20399854 -0.03230631 -0.60356975 0.021487737 -0.2335288 -0.00541834 0.2249764 0.17504983 0.44035605 0.17988537 0.059280906 0.042967565 0.27272314 0.2225188 0.09659414 -0.06269994 0.09313261 -0.077422485 0.086865164 -0.059317965 -0.20775443 -0.061230242 0.1577059 0.05097167 0.26614812 -0.119886436 0.25392342 0.3905426 -0.094573855 0.11519119 -0.008346769 -0.093571335 0.09533806 -0.28241554 0.12361345 -0.07111472 -0.0010831835 -0.42760432 0.12233044 0.4932419 0.021523701 -0.23982662 -0.048886582 -0.14068192 0.09558404 -0.15207037
VLS -0.03055469 0.14415812 -0.07637102 -0.16121396 0.011913009 -0.037200958 -0.13229705 0.18545708 0.021372722 -0.066688985 0.06492384 0.21999429 0.032631226 -0.08926075 0.05187376 -0.016574666 -0.03771827 -0.14180826 -0.16213675 -0.040554985 -0.16162865 0.07872267 0.071688026 -0.023836335 0.135002 -0.11040775 -0.12468844 -0.1423065 0.05574188 -0.1141233 -0.052344505 -0.14134635 0.08926458 0.13725834 0.07231705 0.06089309 0.044964362 -0.20657296 -0.124506965 -0.09086729 0.05337365 0.12957212 0.17202756 0.07724017 -0.011895501 -0.10686342 0.11828257 0.34740165 0.078627065 -0.08372228 0.0028899123 0.16892622 -0.024382018 0.030136144 -0.17961104 -0.028775105 -0.5327388 0.024848279 -0.2071777 0.0010406048 0.19839261 0.15022127 0.3885448 0.16092859 0.04625245 0.03622682 0.2407106 0.20201625 0.081558965 -0.05692803 0.08309859 -0.063186966 0.07427346 -0.05501092 -0.17698218 -0.061468467 0.13199458 0.036512427 0.23094024 -0.101768784 0.22608718 0.34206596 -0.08461123 0.09503527 -0.005082259 -0.07866263 0.07856076 -0.24526466 0.10915814 -0.067014016 0.0022042121 -0.3752072 0.11094596 0.43576387 0.014115239 -0.20581715 -0.047656532 -0.12181655 0.08637971 -0.13916233
